{"learner":{"attributes":{},"feature_names":[],"feature_types":[],"gradient_booster":{"model":{"gbtree_model_param":{"num_parallel_tree":"1","num_trees":"379"},"iteration_indptr":[0,1,2,3,4,5,6,7,8,9,10,11,12,13,14,15,16,17,18,19,20,21,22,23,24,25,26,27,28,29,30,31,32,33,34,35,36,37,38,39,40,41,42,43,44,45,46,47,48,49,50,51,52,53,54,55,56,57,58,59,60,61,62,63,64,65,66,67,68,69,70,71,72,73,74,75,76,77,78,79,80,81,82,83,84,85,86,87,88,89,90,91,92,93,94,95,96,97,98,99,100,101,102,103,104,105,106,107,108,109,110,111,112,113,114,115,116,117,118,119,120,121,122,123,124,125,126,127,128,129,130,131,132,133,134,135,136,137,138,139,140,141,142,143,144,145,146,147,148,149,150,151,152,153,154,155,156,157,158,159,160,161,162,163,164,165,166,167,168,169,170,171,172,173,174,175,176,177,178,179,180,181,182,183,184,185,186,187,188,189,190,191,192,193,194,195,196,197,198,199,200,201,202,203,204,205,206,207,208,209,210,211,212,213,214,215,216,217,218,219,220,221,222,223,224,225,226,227,228,229,230,231,232,233,234,235,236,237,238,239,240,241,242,243,244,245,246,247,248,249,250,251,252,253,254,255,256,257,258,259,260,261,262,263,264,265,266,267,268,269,270,271,272,273,274,275,276,277,278,279,280,281,282,283,284,285,286,287,288,289,290,291,292,293,294,295,296,297,298,299,300,301,302,303,304,305,306,307,308,309,310,311,312,313,314,315,316,317,318,319,320,321,322,323,324,325,326,327,328,329,330,331,332,333,334,335,336,337,338,339,340,341,342,343,344,345,346,347,348,349,350,351,352,353,354,355,356,357,358,359,360,361,362,363,364,365,366,367,368,369,370,371,372,373,374,375,376,377,378,379],"tree_info":[0,0,0,0,0,0,0,0,0,0,0,0,0,0,0,0,0,0,0,0,0,0,0,0,0,0,0,0,0,0,0,0,0,0,0,0,0,0,0,0,0,0,0,0,0,0,0,0,0,0,0,0,0,0,0,0,0,0,0,0,0,0,0,0,0,0,0,0,0,0,0,0,0,0,0,0,0,0,0,0,0,0,0,0,0,0,0,0,0,0,0,0,0,0,0,0,0,0,0,0,0,0,0,0,0,0,0,0,0,0,0,0,0,0,0,0,0,0,0,0,0,0,0,0,0,0,0,0,0,0,0,0,0,0,0,0,0,0,0,0,0,0,0,0,0,0,0,0,0,0,0,0,0,0,0,0,0,0,0,0,0,0,0,0,0,0,0,0,0,0,0,0,0,0,0,0,0,0,0,0,0,0,0,0,0,0,0,0,0,0,0,0,0,0,0,0,0,0,0,0,0,0,0,0,0,0,0,0,0,0,0,0,0,0,0,0,0,0,0,0,0,0,0,0,0,0,0,0,0,0,0,0,0,0,0,0,0,0,0,0,0,0,0,0,0,0,0,0,0,0,0,0,0,0,0,0,0,0,0,0,0,0,0,0,0,0,0,0,0,0,0,0,0,0,0,0,0,0,0,0,0,0,0,0,0,0,0,0,0,0,0,0,0,0,0,0,0,0,0,0,0,0,0,0,0,0,0,0,0,0,0,0,0,0,0,0,0,0,0,0,0,0,0,0,0,0,0,0,0,0,0,0,0,0,0,0,0,0,0,0,0,0,0,0,0,0,0,0,0,0,0,0,0,0,0,0,0,0,0,0,0,0,0,0,0,0,0,0,0,0,0,0,0,0,0,0,0,0,0],"trees":[{"base_weights":[-0E0,-1.7041936E0,1.7850121E0,-1.8322096E0,-2.6154447E-1,8.379036E-1,1.8531107E0,-1.8552811E0,-0E0,1.9941281E-1,-1.2534196E0,1.1372001E0,-9.059166E-2,1.8551378E0,-0E0,-0E0,-1.8744686E0,5.284106E-1,-2.2229207E-1,-1.393877E0,-0E0,1.1991353E0,-0E0,-8.831399E-2,-0E0,-0E0,2.774443E-1,-1.8803495E0,-0E0,6.9099015E-1,-0E0,-4.5294458E-1,-0E0,-2.2333609E-1,-0E0,1.2557023E0,-0E0,-2.8224036E-1,-1.2872344E-2,-0E0,1.14523314E-1,-7.725558E-2,-0E0,-0E0,1.9032277E-1],"categories":[],"categories_nodes":[],"categories_segments":[],"categories_sizes":[],"default_left":[0,0,1,0,0,0,0,0,0,0,0,1,0,0,0,0,0,0,0,0,0,0,0,0,0,0,0,0,0,0,0,0,0,0,0,0,0,0,0,0,0,0,0,0,0],"id":0,"left_children":[1,3,5,7,9,11,13,15,-1,17,19,21,23,25,-1,-1,27,29,31,33,-1,35,-1,-1,-1,-1,-1,37,-1,39,-1,41,-1,-1,-1,43,-1,-1,-1,-1,-1,-1,-1,-1,-1],"loss_changes":[6.0741553E3,1.732981E2,3.9875244E1,4.585913E1,4.9600594E1,2.8944714E1,2.4675293E0,3.1850098E1,0E0,1.0876219E1,8.760857E0,5.7762756E0,3.7083645E0,4.946289E-1,0E0,0E0,2.505127E0,6.218587E0,2.630414E0,5.991501E0,0E0,5.492241E0,0E0,0E0,0E0,0E0,0E0,9.5825195E-1,0E0,2.8010082E0,0E0,7.7141094E-1,0E0,0E0,0E0,7.5146484E-1,0E0,0E0,0E0,0E0,0E0,0E0,0E0,0E0,0E0],"parents":[2147483647,0,0,1,1,2,2,3,3,4,4,5,5,6,6,7,7,9,9,10,10,11,11,12,12,13,13,16,16,17,17,18,18,19,19,21,21,27,27,29,29,31,31,35,35],"right_children":[2,4,6,8,10,12,14,16,-1,18,20,22,24,26,-1,-1,28,30,32,34,-1,36,-1,-1,-1,-1,-1,38,-1,40,-1,42,-1,-1,-1,44,-1,-1,-1,-1,-1,-1,-1,-1,-1],"split_conditions":[6.379E0,6.1E0,6.6E0,2.8E1,1.709E0,1.0969E4,1E1,1.376E-1,-0E0,5.438E3,1.35E2,7.985929E6,1.8E1,1.007E3,-0E0,-0E0,1.5E1,1.6E6,2.2E1,2.4E1,-0E0,7.802E3,-0E0,-8.831399E-2,-0E0,-0E0,2.774443E-1,1.65E2,-0E0,4.05E2,-0E0,1.47E2,-0E0,-2.2333609E-1,-0E0,6.3E1,-0E0,-2.8224036E-1,-1.2872344E-2,-0E0,1.14523314E-1,-7.725558E-2,-0E0,-0E0,1.9032277E-1],"split_indices":[4,4,4,18,3,8,4,3,0,15,0,6,16,1,0,0,11,5,19,19,0,15,0,0,0,0,0,0,0,15,0,0,0,0,0,0,0,0,0,0,0,0,0,0,0],"split_type":[0,0,0,0,0,0,0,0,0,0,0,0,0,0,0,0,0,0,0,0,0,0,0,0,0,0,0,0,0,0,0,0,0,0,0,0,0,0,0,0,0,0,0,0,0],"sum_hessian":[1.9897361E3,1.0179929E3,9.717432E2,9.299935E2,8.799939E1,7.474948E1,8.969938E2,9.202436E2,9.749932E0,5.74996E1,3.0499786E1,6.1249573E1,1.3499906E1,8.957438E2,1.2499913E0,9.749932E0,9.1049365E2,4.0499718E1,1.6999882E1,2.8499802E1,1.999986E0,5.874959E1,2.4999826E0,7.4999475E0,5.999958E0,1.7499878E0,8.939938E2,9.054937E2,4.999965E0,3.5249756E1,5.2499633E0,1.4249901E1,2.749981E0,2.6999811E1,1.4999895E0,5.6749603E1,1.999986E0,8.972437E2,8.249943E0,2.4999826E0,3.274977E1,1.2999909E1,1.2499913E0,1.2499913E0,5.5499615E1],"tree_param":{"num_deleted":"0","num_feature":"21","num_nodes":"45","size_leaf_vector":"1"}},{"base_weights":[-0E0,-1.4797846E0,1.5511681E0,-1.5914587E0,-2.2698896E-1,8.8854873E-1,1.635322E0,-0E0,-1.6177344E0,1.5480906E-1,-1.0869787E0,1.1020553E0,-9.999481E-2,1.637179E0,-0E0,-4.1955095E-2,-0E0,-1.6353332E0,-0E0,7.0292777E-1,-0E0,-1.2183433E0,-0E0,1.2648172E0,-0E0,-4.975517E-1,-0E0,-0E0,1.638935E0,-0E0,-3.1071348E-2,-0E0,1.4643399E-2,-1.6401128E0,-0E0,7.9871E-1,-0E0,6.478846E-2,-2.6842362E-1,-1.9596818E-1,-0E0,1.3210573E0,-0E0,1.6313976E-1,-6.728605E-2,-9.128833E-2,-0E0,2.4517086E-1,-0E0,-2.4592216E-1,-0E0,-0E0,1.3121521E-1,2.3560684E-2,-0E0,-6.928201E-2,-0E0,-0E0,2.0184979E-1,-0E0,3.3462763E-2,-3.0774847E-2,-0E0],"categories":[],"categories_nodes":[],"categories_segments":[],"categories_sizes":[],"default_left":[0,0,1,0,0,1,0,0,0,0,0,0,0,0,0,0,0,0,0,0,0,0,0,1,1,0,0,0,0,0,0,0,0,0,0,0,0,0,0,0,0,0,0,0,0,0,0,0,0,0,0,0,0,0,0,0,0,0,0,0,0,0,0],"id":1,"left_children":[1,3,5,7,9,11,13,15,17,19,21,23,25,27,-1,29,31,33,-1,35,37,39,-1,41,43,45,-1,-1,47,-1,-1,-1,-1,49,-1,51,-1,53,55,-1,-1,57,-1,59,61,-1,-1,-1,-1,-1,-1,-1,-1,-1,-1,-1,-1,-1,-1,-1,-1,-1,-1],"loss_changes":[4.501555E3,1.2733081E2,3.1785156E1,3.6499756E1,3.6576733E1,3.31632E1,1.7319336E0,1.9640071E-2,2.8847168E1,9.517191E0,7.2349243E0,1.8230637E1,3.370534E0,7.7441406E-1,0E0,3.5587177E-1,9.106407E-2,1.1938477E0,0E0,2.238985E0,2.0551429E0,4.9072266E0,0E0,8.79332E0,3.2300076E-1,1.0819542E0,0E0,0E0,5.5566406E-1,0E0,0E0,0E0,0E0,8.461914E-1,0E0,1.8032227E0,0E0,3.457354E-1,2.6396258E0,0E0,0E0,2.3153381E0,0E0,1.6567478E-1,3.8056034E-1,0E0,0E0,0E0,0E0,0E0,0E0,0E0,0E0,0E0,0E0,0E0,0E0,0E0,0E0,0E0,0E0,0E0,0E0],"parents":[2147483647,0,0,1,1,2,2,3,3,4,4,5,5,6,6,7,7,8,8,9,9,10,10,11,11,12,12,13,13,15,15,16,16,17,17,19,19,20,20,21,21,23,23,24,24,25,25,28,28,33,33,35,35,37,37,38,38,41,41,43,43,44,44],"right_children":[2,4,6,8,10,12,14,16,18,20,22,24,26,28,-1,30,32,34,-1,36,38,40,-1,42,44,46,-1,-1,48,-1,-1,-1,-1,50,-1,52,-1,54,56,-1,-1,58,-1,60,62,-1,-1,-1,-1,-1,-1,-1,-1,-1,-1,-1,-1,-1,-1,-1,-1,-1,-1],"split_conditions":[6.379E0,6.1E0,6.69E0,2.3E0,1.709E0,2.424E0,1E1,3E0,2.8E1,1E0,1.35E2,6.714E3,1.8E1,1.007E3,-0E0,1.225E3,4.257E3,1.5E1,-0E0,7.149E3,8.288E-1,2.4E1,-0E0,1.8634654E7,7.307E-1,6.618E0,-0E0,-0E0,7E0,-0E0,-3.1071348E-2,-0E0,1.4643399E-2,8E1,-0E0,8.4E1,-0E0,1.05E6,2.8E1,-1.9596818E-1,-0E0,2E0,-0E0,8E0,1.1E1,-9.128833E-2,-0E0,2.4517086E-1,-0E0,-2.4592216E-1,-0E0,-0E0,1.3121521E-1,2.3560684E-2,-0E0,-6.928201E-2,-0E0,-0E0,2.0184979E-1,-0E0,3.3462763E-2,-3.0774847E-2,-0E0],"split_indices":[4,4,4,4,3,3,4,17,18,17,0,15,16,1,0,1,15,11,0,15,3,19,0,6,3,4,0,0,10,0,0,0,0,16,0,0,0,5,16,0,0,16,0,18,16,0,0,0,0,0,0,0,0,0,0,0,0,0,0,0,0,0,0],"split_type":[0,0,0,0,0,0,0,0,0,0,0,0,0,0,0,0,0,0,0,0,0,0,0,0,0,0,0,0,0,0,0,0,0,0,0,0,0,0,0,0,0,0,0,0,0,0,0,0,0,0,0,0,0,0,0,0,0,0,0,0,0,0,0],"sum_hessian":[1.9541382E3,1.00055804E3,9.535802E2,9.130106E2,8.754741E1,1.2077777E2,8.328024E2,1.5584273E1,8.9742633E2,5.7365868E1,3.0181541E1,1.0442623E2,1.6351538E1,8.315524E2,1.2499913E0,7.645844E0,7.9384294E0,8.889264E2,8.499941E0,1.8702318E1,3.866355E1,2.8181555E1,1.999986E0,8.982965E1,1.4596586E1,1.0905606E1,5.4459314E0,1.4999895E0,8.300524E2,2.4763231E0,5.169521E0,1.9715946E0,5.966835E0,8.8417645E2,4.749967E0,1.7203615E1,1.4987024E0,1.4713812E1,2.394974E1,2.6681566E1,1.4999895E0,8.708995E1,2.7396958E0,6.6803803E0,7.916206E0,8.945045E0,1.9605608E0,8.2809186E2,1.9605608E0,8.780448E2,6.1316586E0,1.2466683E0,1.5956946E1,1.3465357E1,1.2484546E0,1.7962606E1,5.9871325E0,2.7155938E0,8.437436E1,1.4830103E0,5.19737E0,6.6758914E0,1.2403145E0],"tree_param":{"num_deleted":"0","num_feature":"21","num_nodes":"63","size_leaf_vector":"1"}},{"base_weights":[-0E0,-1.3206713E0,1.3882624E0,-1.4247754E0,-1.8505287E-1,8.976622E-2,1.420486E0,-8.801093E-2,-1.4642428E0,2.3646529E-1,-8.1537426E-1,5.3689677E-1,-5.854345E-2,9.033247E-1,1.4672506E0,-2.887959E-1,-0E0,-1.4783448E0,-0E0,-4.4028804E-2,5.914159E-1,-9.449293E-1,-0E0,7.1331507E-1,-0E0,-2.778624E-1,-0E0,1.0511518E0,-0E0,1.4689358E0,-0E0,-0E0,-4.957894E-1,-2.22046E-1,-0E0,-3.4433332E-1,-0E0,-0E0,6.966858E-1,-1.0448048E0,-0E0,-0E0,1.12584606E-1,-0E0,-6.0364906E-2,1.1711802E0,-0E0,-0E0,1.4704615E0,-0E0,-8.309086E-2,-1.5181313E-2,-0E0,-0E0,-6.1389945E-2,1.1769175E-1,-0E0,-1.6380526E-1,-0E0,1.8456058E-1,-0E0,2.7498843E-2,-0E0,2.1995504E-1,-0E0],"categories":[],"categories_nodes":[],"categories_segments":[],"categories_sizes":[],"default_left":[0,0,0,0,0,0,1,0,0,0,0,0,0,1,0,0,0,0,0,0,0,0,0,0,0,0,0,0,0,0,0,0,0,0,0,0,0,0,0,0,0,0,0,0,0,0,1,0,0,0,0,0,0,0,0,0,0,0,0,0,0,0,0,0,0],"id":2,"left_children":[1,3,5,7,9,11,13,15,17,19,21,23,25,27,29,31,-1,33,-1,35,37,39,-1,41,-1,43,-1,45,-1,47,-1,-1,49,-1,51,53,-1,-1,55,57,-1,-1,-1,-1,-1,59,61,-1,63,-1,-1,-1,-1,-1,-1,-1,-1,-1,-1,-1,-1,-1,-1,-1,-1],"loss_changes":[3.4409458E3,1.022832E2,2.7969604E1,3.5593994E1,2.8391006E1,5.277167E0,1.3309326E0,1.9152591E0,1.8138916E1,8.693317E0,6.9282417E0,3.0584936E0,9.627996E-1,1.4413399E1,1.2452393E0,2.950869E0,0E0,1.7719727E0,0E0,1.8231243E0,3.1141853E0,5.7412453E0,0E0,1.7159176E-1,0E0,5.6850374E-1,0E0,6.8514175E0,0E0,3.2385254E-1,0E0,0E0,8.7490606E-1,0E0,9.723483E-2,5.797571E-1,0E0,0E0,2.3616095E0,2.7113266E0,0E0,0E0,0E0,0E0,0E0,4.0024414E0,3.5270897E-1,0E0,1.1962891E-2,0E0,0E0,0E0,0E0,0E0,0E0,0E0,0E0,0E0,0E0,0E0,0E0,0E0,0E0,0E0,0E0],"parents":[2147483647,0,0,1,1,2,2,3,3,4,4,5,5,6,6,7,7,8,8,9,9,10,10,11,11,12,12,13,13,14,14,15,15,17,17,19,19,20,20,21,21,23,23,25,25,27,27,29,29,32,32,34,34,35,35,38,38,39,39,45,45,46,46,48,48],"right_children":[2,4,6,8,10,12,14,16,18,20,22,24,26,28,30,32,-1,34,-1,36,38,40,-1,42,-1,44,-1,46,-1,48,-1,-1,50,-1,52,54,-1,-1,56,58,-1,-1,-1,-1,-1,60,62,-1,64,-1,-1,-1,-1,-1,-1,-1,-1,-1,-1,-1,-1,-1,-1,-1,-1],"split_conditions":[6.379E0,6.1E0,6.5E0,2.678E-1,1.2916E0,4.82E3,6.69E0,8E0,2.8E1,1.1E1,1.35E2,6.2E6,1.9E1,2.424E0,1E1,7.47E-2,-0E0,1.65E2,-0E0,9E0,4.05E2,2.4E1,-0E0,8.5E1,-0E0,8.85E-1,-0E0,6.59E3,-0E0,1.007E3,-0E0,-0E0,1.371534E2,-2.22046E-1,2.7E1,2.809E-1,-0E0,-0E0,1.75E6,6.3E1,-0E0,-0E0,1.12584606E-1,-0E0,-6.0364906E-2,3.766496E7,1.1093E0,-0E0,7E0,-0E0,-8.309086E-2,-1.5181313E-2,-0E0,-0E0,-6.1389945E-2,1.1769175E-1,-0E0,-1.6380526E-1,-0E0,1.8456058E-1,-0E0,2.7498843E-2,-0E0,2.1995504E-1,-0E0],"split_indices":[4,4,4,3,3,15,4,18,18,16,0,6,18,3,4,3,0,0,0,18,15,19,0,0,0,3,0,15,0,1,0,0,8,0,16,3,0,0,5,16,0,0,0,0,0,6,3,0,10,0,0,0,0,0,0,0,0,0,0,0,0,0,0,0,0],"split_type":[0,0,0,0,0,0,0,0,0,0,0,0,0,0,0,0,0,0,0,0,0,0,0,0,0,0,0,0,0,0,0,0,0,0,0,0,0,0,0,0,0,0,0,0,0,0,0,0,0,0,0,0,0,0,0,0,0,0,0,0,0,0,0,0,0],"sum_hessian":[1.8697606E3,9.584175E2,9.113432E2,8.718492E2,8.6568275E1,2.7297468E1,8.840457E2,3.0073057E1,8.417761E2,4.698328E1,3.9584995E1,1.5474173E1,1.1823297E1,9.080756E1,7.9323816E2,2.2571207E1,7.50185E0,8.3402625E2,7.749883E0,1.7686087E1,2.9297195E1,3.633683E1,3.2481666E0,1.3255179E1,2.218993E0,9.6392E0,2.184096E0,7.9188835E1,1.1618734E1,7.9198816E2,1.2499913E0,5.2281723E0,1.7343035E1,8.259074E2,8.118848E0,1.2211279E1,5.4748073E0,2.74978E0,2.6547415E1,3.4341896E1,1.9949317E0,1.442288E0,1.1812891E1,3.4496803E0,6.18952E0,6.810126E1,1.1087574E1,1.4999895E0,7.9048816E2,1.454314E0,1.58887205E1,5.9046164E0,2.214231E0,1.249195E0,1.0962084E1,2.3803087E1,2.7443283E0,3.3115677E1,1.2262198E0,6.3475166E1,4.626094E0,6.898668E0,4.1889057E0,7.885276E2,1.9605608E0],"tree_param":{"num_deleted":"0","num_feature":"21","num_nodes":"65","size_leaf_vector":"1"}},{"base_weights":[-0E0,-1.2757946E0,1.1937276E0,-1.3093082E0,-0E0,-0E0,1.2945455E0,-0E0,-1.3307308E0,7.0676744E-2,-1.8430573E-1,3.0817717E-1,-7.7673316E-1,9.085937E-1,1.362111E0,-1.3819995E0,-6.418968E-1,2.0574753E-1,-0E0,-3.8736042E-1,-0E0,-0E0,6.387185E-1,-1.3023484E-1,-0E0,1.0882833E0,-0E0,1.3638632E0,-0E0,-0E0,-2.0671634E-1,-0E0,-1.0450306E0,-0E0,3.3974566E-2,-5.658544E-1,-0E0,-2.149582E-1,9.311967E-2,-0E0,7.4466544E-1,1.1201468E0,-0E0,-1.710203E-1,4.132514E-1,-0E0,2.0398572E-1,-2.0217987E-2,4.031786E-2,-1.6315638E-1,-0E0,-0E0,-9.045938E-2,-4.9972635E-2,-0E0,2.6330894E-2,-0E0,1.1780157E-1,-0E0,-0E0,1.6905421E-1,-5.0021764E-2,-0E0,-0E0,6.927274E-2],"categories":[],"categories_nodes":[],"categories_segments":[],"categories_sizes":[],"default_left":[0,0,0,0,0,0,1,0,0,0,0,0,0,1,0,0,0,0,0,0,0,0,0,0,0,1,0,0,0,0,0,0,0,0,0,0,0,0,0,0,0,0,0,0,0,0,0,0,0,0,0,0,0,0,0,0,0,0,0,0,0,0,0,0,0],"id":3,"left_children":[1,3,5,7,9,11,13,-1,15,17,19,21,23,25,27,29,31,33,-1,35,-1,37,39,-1,-1,41,43,45,-1,-1,-1,47,49,-1,-1,51,-1,53,55,-1,57,59,-1,61,63,-1,-1,-1,-1,-1,-1,-1,-1,-1,-1,-1,-1,-1,-1,-1,-1,-1,-1,-1,-1],"loss_changes":[2.690053E3,3.350879E1,1.0241724E2,2.2491333E1,6.5680057E-1,1.7065596E1,2.6663818E0,0E0,1.2483276E1,3.9265075E-1,1.7942071E0,8.962185E0,1.9260569E0,2.0102806E1,9.7717285E-1,1.4648438E-1,2.118085E1,4.1940153E-2,0E0,2.2241716E0,0E0,1.1478119E0,4.4751453E0,0E0,0E0,2.8050537E0,3.4690993E0,8.569336E-2,0E0,0E0,0E0,1.5149006E0,3.242138E0,0E0,0E0,2.334094E-1,0E0,1.0728239E0,2.2854888E-1,0E0,1.6000252E0,1.4891205E0,0E0,1.2782626E0,3.677454E-1,0E0,0E0,0E0,0E0,0E0,0E0,0E0,0E0,0E0,0E0,0E0,0E0,0E0,0E0,0E0,0E0,0E0,0E0,0E0,0E0],"parents":[2147483647,0,0,1,1,2,2,3,3,4,4,5,5,6,6,8,8,9,9,10,10,11,11,12,12,13,13,14,14,15,15,16,16,17,17,19,19,21,21,22,22,25,25,26,26,27,27,31,31,32,32,35,35,37,37,38,38,40,40,41,41,43,43,44,44],"right_children":[2,4,6,8,10,12,14,-1,16,18,20,22,24,26,28,30,32,34,-1,36,-1,38,40,-1,-1,42,44,46,-1,-1,-1,48,50,-1,-1,52,-1,54,56,-1,58,60,-1,62,64,-1,-1,-1,-1,-1,-1,-1,-1,-1,-1,-1,-1,-1,-1,-1,-1,-1,-1,-1,-1],"split_conditions":[6.2E0,2.1E1,6.467E0,2.3E0,6.821872E2,2.1832E0,6.797E0,-0E0,6E0,4.71E-1,2.2E1,1.2E1,4.6E1,1.8102E0,1E1,7.47E-2,1.1613E0,8.3E1,-0E0,4.1E1,-0E0,9E0,1.87E2,-1.3023484E-1,-0E0,8E6,1.8E1,1.007E3,-0E0,-0E0,-2.0671634E-1,1.01E2,1.47E2,-0E0,3.3974566E-2,2E0,-0E0,1.13E2,6.413E0,-0E0,6.528E3,6.3E1,-0E0,1.26E2,1.94E0,-0E0,2.0398572E-1,-2.0217987E-2,4.031786E-2,-1.6315638E-1,-0E0,-0E0,-9.045938E-2,-4.9972635E-2,-0E0,2.6330894E-2,-0E0,1.1780157E-1,-0E0,-0E0,1.6905421E-1,-5.0021764E-2,-0E0,-0E0,6.927274E-2],"split_indices":[4,18,4,4,8,3,4,0,4,3,16,16,16,3,4,3,3,0,0,18,0,18,15,0,0,5,16,1,0,0,0,0,0,0,0,19,0,0,4,0,15,0,0,0,3,0,0,0,0,0,0,0,0,0,0,0,0,0,0,0,0,0,0,0,0],"split_type":[0,0,0,0,0,0,0,0,0,0,0,0,0,0,0,0,0,0,0,0,0,0,0,0,0,0,0,0,0,0,0,0,0,0,0,0,0,0,0,0,0,0,0,0,0,0,0,0,0,0,0,0,0,0,0,0,0,0,0,0,0,0,0,0,0],"sum_hessian":[1.759393E3,8.497857E2,9.0960724E2,8.262089E2,2.3576801E1,7.557372E1,8.340335E2,1.3798497E1,8.124104E2,9.695258E0,1.3881542E1,6.0946045E1,1.462768E1,1.4621277E2,6.8782074E2,7.4402045E2,6.839001E1,7.322109E0,2.3731492E0,1.2383311E1,1.4982312E0,2.748389E1,3.3462154E1,1.342391E1,1.2037697E0,1.1782524E2,2.8387527E1,6.8657074E2,1.2499913E0,1.72849E0,7.4229193E2,2.5379366E1,4.301064E1,1.1548431E0,6.167266E0,1.0883345E1,1.4999665E0,1.9095613E1,8.388277E0,1.7022753E0,3.1759878E1,1.1325593E2,4.5693145E0,1.4705715E1,1.3681813E1,1.4999895E0,6.8507074E2,1.1988567E1,1.3390799E1,4.180524E1,1.2053964E0,1.1865746E0,9.69677E0,1.5412994E1,3.6826184E0,7.1675954E0,1.2206821E0,3.0519537E1,1.2403427E0,1.1840556E0,1.1207187E2,1.2643115E1,2.0626E0,1.8261971E0,1.1855616E1],"tree_param":{"num_deleted":"0","num_feature":"21","num_nodes":"65","size_leaf_vector":"1"}},{"base_weights":[-0E0,-1.1053979E0,1.1705316E0,-1.2278358E0,-3.059218E-1,6.0985816E-1,1.2483913E0,-0E0,-1.2678492E0,1.8668836E-1,-8.60847E-1,8.053709E-1,-0E0,-0E0,1.2505485E0,-1.6304067E-1,-0E0,-1.2840605E0,-0E0,-2.470139E-2,4.8285365E-1,-9.496917E-1,-0E0,9.2284393E-1,-0E0,1.5240583E-1,-5.7692844E-1,1.2517684E0,-0E0,-0E0,-3.2402238E-1,-1.925607E-1,-0E0,-0E0,-3.7846652E-1,5.791339E-1,-0E0,-1.0134525E0,-0E0,9.83816E-1,-0E0,-0E0,1.8294878E-1,-1.0236794E-1,-0E0,1.8727568E-1,-0E0,-0E0,-6.5950006E-2,-0E0,1.758118E-2,-7.46263E-2,-0E0,9.728371E-2,-0E0,-1.6046524E-1,-0E0,-0E0,1.4899664E-1,3.55142E-2,-0E0],"categories":[],"categories_nodes":[],"categories_segments":[],"categories_sizes":[],"default_left":[0,0,1,0,0,0,0,0,0,0,0,1,1,0,0,0,0,0,0,0,0,0,0,1,0,0,0,0,0,0,0,0,0,0,0,0,0,0,0,0,0,0,1,0,0,0,0,0,0,0,0,0,0,0,0,0,0,0,0,0,0],"id":4,"left_children":[1,3,5,7,9,11,13,15,17,19,21,23,25,-1,27,29,-1,31,-1,33,35,37,-1,39,-1,41,43,45,-1,-1,47,-1,-1,49,51,53,-1,55,-1,57,-1,-1,59,-1,-1,-1,-1,-1,-1,-1,-1,-1,-1,-1,-1,-1,-1,-1,-1,-1,-1],"loss_changes":[2.1283855E3,7.13999E1,2.0098877E1,2.8357788E1,3.8866768E1,1.8351894E1,1.348877E0,6.3759685E-1,1.4264404E1,6.9369626E0,6.747715E0,1.1340248E1,4.89927E0,0E0,2.0812988E-1,1.3576472E0,0E0,1.4302979E0,0E0,2.1964653E0,2.5926437E0,5.3833466E0,0E0,4.1282043E0,0E0,8.547482E-2,1.0710392E0,4.9316406E-2,0E0,0E0,1.0252721E0,0E0,0E0,1.4956202E-1,1.2291856E0,2.2116632E0,0E0,3.4145126E0,0E0,9.049454E-1,0E0,0E0,1.5630466E-1,0E0,0E0,0E0,0E0,0E0,0E0,0E0,0E0,0E0,0E0,0E0,0E0,0E0,0E0,0E0,0E0,0E0,0E0],"parents":[2147483647,0,0,1,1,2,2,3,3,4,4,5,5,6,6,7,7,8,8,9,9,10,10,11,11,12,12,14,14,15,15,17,17,19,19,20,20,21,21,23,23,25,25,26,26,27,27,30,30,33,33,34,34,35,35,37,37,39,39,42,42],"right_children":[2,4,6,8,10,12,14,16,18,20,22,24,26,-1,28,30,-1,32,-1,34,36,38,-1,40,-1,42,44,46,-1,-1,48,-1,-1,50,52,54,-1,56,-1,58,-1,-1,60,-1,-1,-1,-1,-1,-1,-1,-1,-1,-1,-1,-1,-1,-1,-1,-1,-1,-1],"split_conditions":[6.379E0,6E0,6.69E0,2.678E-1,1.2688E0,6.528E3,7.47E-2,8E0,2.7E1,1.1E1,1.35E2,1.5965324E7,1.0951E0,-0E0,5.7E1,7.47E-2,-0E0,1.5E1,-0E0,7.225E-1,1.2E6,2.6E1,-0E0,2.424E0,-0E0,8.1E1,4E0,7E0,-0E0,-0E0,1E0,-1.925607E-1,-0E0,1.32E3,2.6E0,7.19968E5,-0E0,4.9E1,-0E0,6.3E1,-0E0,-0E0,7.307E-1,-1.0236794E-1,-0E0,1.8727568E-1,-0E0,-0E0,-6.5950006E-2,-0E0,1.758118E-2,-7.46263E-2,-0E0,9.728371E-2,-0E0,-1.6046524E-1,-0E0,-0E0,1.4899664E-1,3.55142E-2,-0E0],"split_indices":[4,4,4,3,3,15,3,18,18,16,0,6,3,0,18,3,0,11,0,3,5,19,0,3,0,0,20,10,0,0,17,0,0,1,11,6,0,16,0,0,0,0,3,0,0,0,0,0,0,0,0,0,0,0,0,0,0,0,0,0,0],"split_type":[0,0,0,0,0,0,0,0,0,0,0,0,0,0,0,0,0,0,0,0,0,0,0,0,0,0,0,0,0,0,0,0,0,0,0,0,0,0,0,0,0,0,0,0,0,0,0,0,0,0,0,0,0,0,0,0,0,0,0,0,0],"sum_hessian":[1.6378247E3,8.4170074E2,7.9612396E2,7.212009E2,1.20499825E2,1.11084595E2,6.8503937E2,2.7380655E1,6.9382025E2,5.883473E1,6.1665096E1,9.049264E1,2.0591953E1,1.5108879E0,6.835285E2,2.0473972E1,6.9066834E0,6.849751E2,8.845156E0,2.3343325E1,3.54914E1,5.7522316E1,4.1427813E0,8.139913E1,9.093508E0,1.035195E1,1.0240005E1,6.823228E2,1.2056699E0,4.9817567E0,1.5492216E1,6.80655E2,4.32006E0,1.1406267E1,1.1937058E1,3.1331018E1,4.160383E0,5.5325424E1,2.196892E0,7.546568E1,5.933452E0,1.6889019E0,8.663048E0,8.518371E0,1.7216341E0,6.804131E2,1.9097587E0,3.5039177E0,1.1988297E1,4.1184583E0,7.287809E0,1.0282977E1,1.6540815E0,2.9263742E1,2.0672765E0,5.1829777E1,3.495648E0,1.2144554E0,7.425123E1,6.4652996E0,2.1977482E0],"tree_param":{"num_deleted":"0","num_feature":"21","num_nodes":"61","size_leaf_vector":"1"}},{"base_weights":[-0E0,-1.0993183E0,1.0204128E0,-1.1803882E0,-3.343198E-1,2.7821577E-4,1.1217947E0,-0E0,-1.1992838E0,-7.2059923E-1,1.5228832E-1,2.7196622E-1,-6.6211843E-1,8.091945E-1,1.2134087E0,-1.2043443E0,-0E0,-7.9171425E-1,-0E0,7.3546994E-1,-0E0,5.044455E-1,-0E0,-1.1241436E-1,-0E0,9.268943E-1,-0E0,1.2156047E0,-0E0,-1.8080132E-1,-0E0,-0E0,-9.5861936E-1,-0E0,1.1927074E-1,-4.959983E-2,2.0204823E-2,6.0701066E-1,-0E0,-1.6208127E-1,-0E0,9.9864393E-1,-0E0,2.6995057E-1,-3.2598636E-1,-0E0,1.819195E-1,-6.6721523E-3,-0E0,-1.483381E-1,-0E0,-0E0,2.9918231E-2,-0E0,1.0231038E-1,-0E0,-3.512713E-2,1.513197E-1,-0E0,-0E0,7.6380246E-3,6.189389E-2,-0E0,-7.57309E-2,-0E0],"categories":[],"categories_nodes":[],"categories_segments":[],"categories_sizes":[],"default_left":[0,0,0,0,0,0,1,0,0,0,0,0,0,0,0,0,0,0,0,0,0,0,0,0,0,0,1,0,0,0,0,0,0,0,0,0,0,0,0,0,0,0,0,1,0,0,0,0,0,0,0,0,0,0,0,0,0,0,0,0,0,0,0,0,0],"id":5,"left_children":[1,3,5,7,9,11,13,-1,15,17,19,21,23,25,27,29,-1,31,-1,33,35,37,39,-1,-1,41,43,45,-1,-1,-1,47,49,-1,-1,-1,51,53,-1,55,-1,57,59,61,63,-1,-1,-1,-1,-1,-1,-1,-1,-1,-1,-1,-1,-1,-1,-1,-1,-1,-1,-1,-1],"loss_changes":[1.7044829E3,3.404358E1,7.425433E1,1.498053E1,1.9629904E1,1.2597537E1,3.72583E0,0E0,1.8545532E0,4.7283077E0,5.4826164E0,6.5172234E0,1.5530772E0,1.6456894E1,9.752197E-1,1.6295776E0,0E0,4.095783E0,0E0,4.5054865E-1,1.3044131E0,3.8125877E0,5.018734E-1,0E0,0E0,7.769699E0,2.779704E0,4.671631E-1,0E0,0E0,0E0,2.3086732E-2,1.6620865E0,0E0,0E0,0E0,4.6995166E-1,3.4905224E0,0E0,4.7156024E-1,0E0,3.0299225E0,3.50616E-2,1.8449287E0,1.4167945E0,0E0,0E0,0E0,0E0,0E0,0E0,0E0,0E0,0E0,0E0,0E0,0E0,0E0,0E0,0E0,0E0,0E0,0E0,0E0,0E0],"parents":[2147483647,0,0,1,1,2,2,3,3,4,4,5,5,6,6,8,8,9,9,10,10,11,11,12,12,13,13,14,14,15,15,17,17,19,19,20,20,21,21,22,22,25,25,26,26,27,27,31,31,32,32,36,36,37,37,39,39,41,41,42,42,43,43,44,44],"right_children":[2,4,6,8,10,12,14,-1,16,18,20,22,24,26,28,30,-1,32,-1,34,36,38,40,-1,-1,42,44,46,-1,-1,-1,48,50,-1,-1,-1,52,54,-1,56,-1,58,60,62,64,-1,-1,-1,-1,-1,-1,-1,-1,-1,-1,-1,-1,-1,-1,-1,-1,-1,-1,-1,-1],"split_conditions":[6.2E0,8E0,6.5E0,1.62E-1,1.6E1,2.2772E0,6.898E0,-0E0,1.5E1,4.4E1,1.3E1,5.438E3,4.6E1,6.683E3,1E1,8E1,-0E0,2E0,-0E0,1.7E1,1.7E1,1.75E6,9E0,-1.1241436E-1,-0E0,2.7965864E7,1.3477E0,1.007E3,-0E0,-1.8080132E-1,-0E0,4E0,1.41E2,-0E0,1.1927074E-1,-4.959983E-2,5.077E0,1.87E2,-0E0,3.494E-1,-0E0,2.065311E1,1.04E2,4.3E6,1.8E1,-0E0,1.819195E-1,-6.6721523E-3,-0E0,-1.483381E-1,-0E0,-0E0,2.9918231E-2,-0E0,1.0231038E-1,-0E0,-3.512713E-2,1.513197E-1,-0E0,-0E0,7.6380246E-3,6.189389E-2,-0E0,-7.57309E-2,-0E0],"split_indices":[4,18,4,3,16,3,4,0,11,18,18,15,16,15,4,16,0,19,0,16,18,5,18,0,0,6,3,1,0,0,0,17,0,0,0,0,4,15,0,3,0,7,0,5,16,0,0,0,0,0,0,0,0,0,0,0,0,0,0,0,0,0,0,0,0],"split_type":[0,0,0,0,0,0,0,0,0,0,0,0,0,0,0,0,0,0,0,0,0,0,0,0,0,0,0,0,0,0,0,0,0,0,0,0,0,0,0,0,0,0,0,0,0,0,0,0,0,0,0,0,0,0,0,0,0,0,0,0,0,0,0,0,0],"sum_hessian":[1.512562E3,7.2724994E2,7.853121E2,6.4812274E2,7.912718E1,7.713091E1,7.081812E2,9.956671E0,6.381661E2,5.0650635E1,2.847655E1,6.315541E1,1.39755E1,1.844886E2,5.2369257E2,6.340636E2,4.1025085E0,4.8900883E1,1.7497526E0,7.995468E0,2.0481081E1,4.1477837E1,2.1677574E1,1.277173E1,1.2037697E0,1.5892958E2,2.5559023E1,5.224495E2,1.2430874E0,6.2901385E2,5.049713E0,1.2205272E1,3.669561E1,1.0343412E0,6.961127E0,8.264109E0,1.2216972E1,3.7906E1,3.5718348E0,1.5592356E1,6.0852184E0,1.4421703E2,1.4712551E1,1.6933971E1,8.625051E0,1.4861817E0,5.209633E2,8.062996E0,4.1422763E0,3.5652145E1,1.0434664E0,3.8503745E0,8.366597E0,1.4345349E0,3.6471466E1,1.4963942E0,1.4095962E1,1.430499E2,1.167124E0,4.810529E0,9.902022E0,1.5917988E1,1.0159845E0,7.021192E0,1.6038587E0],"tree_param":{"num_deleted":"0","num_feature":"21","num_nodes":"65","size_leaf_vector":"1"}},{"base_weights":[-0E0,-1.0285034E0,9.5012075E-1,-2.2319224E-1,-1.1074514E0,-0E0,1.0531305E0,-4.842895E-1,4.2901096E-1,-1.1164718E0,-0E0,2.2731934E-1,-5.974441E-1,1.24618255E-1,1.0749433E0,-0E0,-6.670766E-1,5.695966E-1,-0E0,-1.1671956E0,-4.8439515E-1,-0E0,4.6205065E-1,-1.0241525E-1,-0E0,-0E0,4.7976217E-1,-0E0,1.081754E0,1.8794546E-2,-0E0,-7.8599906E-1,-0E0,9.623579E-2,-0E0,-0E0,-1.1725707E0,-0E0,-7.8262013E-1,-1.6209169E-1,4.588712E-2,-0E0,5.5947065E-1,-0E0,-1.3148531E-2,-0E0,8.5190654E-2,1.0848199E0,-0E0,-0E0,3.4450103E-2,-0E0,-1.2862284E-1,-1.7540357E-1,-0E0,-2.5803257E-2,2.6396714E-2,-1.2370506E-1,-0E0,-4.1572638E-2,-0E0,-0E0,1.960886E-2,8.9739084E-2,-0E0,-0E0,-1.9834528E-2,1.623409E-1,-0E0],"categories":[],"categories_nodes":[],"categories_segments":[],"categories_sizes":[],"default_left":[0,0,0,0,0,0,0,0,0,0,0,0,0,0,1,0,0,0,0,0,0,0,0,0,0,0,0,0,0,0,0,0,0,0,0,0,0,0,0,0,0,0,0,0,0,0,0,0,0,0,0,0,0,0,0,0,0,0,0,0,0,0,0,0,0,0,0,0,0],"id":6,"left_children":[1,3,5,7,9,11,13,15,17,19,-1,21,23,25,27,29,31,33,-1,35,37,39,41,-1,-1,43,45,-1,47,49,-1,51,-1,-1,-1,-1,53,55,57,59,61,-1,63,-1,65,-1,-1,67,-1,-1,-1,-1,-1,-1,-1,-1,-1,-1,-1,-1,-1,-1,-1,-1,-1,-1,-1,-1,-1],"loss_changes":[1.3669211E3,3.3113953E1,6.620221E1,1.3301275E1,8.366882E0,9.470972E0,4.9019775E0,8.03157E0,1.7989063E0,6.465515E0,0E0,4.8585606E0,1.3576679E0,3.4722373E0,2.5181885E0,4.266243E-3,4.9498844E0,7.185168E-1,0E0,1.3586426E0,8.603175E0,5.9349847E-1,3.3228064E0,0E0,0E0,1.8054821E-3,1.0580902E0,0E0,1.0101929E0,5.4710704E-1,0E0,1.3939438E0,0E0,0E0,0E0,0E0,3.694458E-1,9.1744536E-1,1.4346466E0,8.251358E-1,1.5920186E-1,0E0,1.1628294E0,0E0,1.2178203E-1,0E0,0E0,2.949829E-1,0E0,0E0,0E0,0E0,0E0,0E0,0E0,0E0,0E0,0E0,0E0,0E0,0E0,0E0,0E0,0E0,0E0,0E0,0E0,0E0,0E0],"parents":[2147483647,0,0,1,1,2,2,3,3,4,4,5,5,6,6,7,7,8,8,9,9,11,11,12,12,13,13,14,14,15,15,16,16,17,17,19,19,20,20,21,21,22,22,25,25,26,26,28,28,29,29,31,31,36,36,37,37,38,38,39,39,40,40,42,42,44,44,47,47],"right_children":[2,4,6,8,10,12,14,16,18,20,-1,22,24,26,28,30,32,34,-1,36,38,40,42,-1,-1,44,46,-1,48,50,-1,52,-1,-1,-1,-1,54,56,58,60,62,-1,64,-1,66,-1,-1,68,-1,-1,-1,-1,-1,-1,-1,-1,-1,-1,-1,-1,-1,-1,-1,-1,-1,-1,-1,-1,-1],"split_conditions":[6.2E0,4.934E-1,6.5E0,5.679E0,3.7E1,2.2772E0,1E0,2.3E0,6.7E5,6E0,-0E0,1.1E1,4.6E1,7.003E0,7.47E-2,5.0974E2,1.26E2,6.932E3,-0E0,2.3E0,1.2523E0,9E0,1.87E2,-1.0241525E-1,-0E0,1.577E3,3.722E-1,-0E0,3.2157524E1,7.4E1,-0E0,1E0,-0E0,9.623579E-2,-0E0,-0E0,5.2E1,1.06E2,1.7E1,1.13E2,1.103E3,-0E0,3.4E6,-0E0,2E0,-0E0,8.5190654E-2,7E0,-0E0,-0E0,3.4450103E-2,-0E0,-1.2862284E-1,-1.7540357E-1,-0E0,-2.5803257E-2,2.6396714E-2,-1.2370506E-1,-0E0,-4.1572638E-2,-0E0,-0E0,1.960886E-2,8.9739084E-2,-0E0,-0E0,-1.9834528E-2,1.623409E-1,-0E0],"split_indices":[4,3,4,4,18,3,16,4,5,4,0,16,16,4,3,8,0,15,0,4,3,18,15,0,0,1,3,0,7,0,0,17,0,0,0,0,19,0,19,0,1,0,5,0,17,0,0,10,0,0,0,0,0,0,0,0,0,0,0,0,0,0,0,0,0,0,0,0,0],"split_type":[0,0,0,0,0,0,0,0,0,0,0,0,0,0,0,0,0,0,0,0,0,0,0,0,0,0,0,0,0,0,0,0,0,0,0,0,0,0,0,0,0,0,0,0,0,0,0,0,0,0,0,0,0,0,0,0,0,0,0,0,0,0,0,0,0,0,0,0,0],"sum_hessian":[1.3918787E3,6.676533E2,7.242253E2,6.8193924E1,5.994594E2,7.571083E1,6.4851447E2,5.649411E1,1.1699814E1,5.9646783E2,2.991553E0,6.2202248E1,1.3508585E1,2.229787E1,6.262166E2,1.0330474E1,4.6163635E1,1.0662168E1,1.037646E0,5.398415E2,5.662633E1,2.7050701E1,3.5151546E1,1.2304815E1,1.2037697E0,8.982895E0,1.3314976E1,5.7526937E0,6.204639E2,8.5658045E0,1.7646691E0,4.0281094E1,5.88254E0,9.30227E0,1.359898E0,3.981966E0,5.3585956E2,2.3053875E1,3.3572456E1,1.8076578E1,8.974122E0,1.676773E0,3.3474773E1,2.0514019E0,6.9314933E0,1.6616205E0,1.1653355E1,6.178003E2,2.6635995E0,1.7083564E0,6.8574486E0,5.412115E0,3.486898E1,5.347446E2,1.1148939E0,1.200622E1,1.1047655E1,3.1709042E1,1.8634137E0,1.4469224E1,3.607355E0,1.7186788E0,7.2554436E0,3.1797295E1,1.67748E0,3.4317617E0,3.4997315E0,6.1596967E2,1.8306674E0],"tree_param":{"num_deleted":"0","num_feature":"21","num_nodes":"69","size_leaf_vector":"1"}},{"base_weights":[-0E0,-8.9668435E-1,9.572579E-1,-1.0248709E0,-1.8593578E-1,3.8699347E-1,1.0488657E0,-0E0,-1.0717402E0,1.5812035E-1,-6.573578E-1,6.348226E-1,-0E0,-0E0,1.0512879E0,-0E0,-3.792259E-2,-1.0912089E0,-0E0,-0E0,4.4541442E-1,-0E0,-7.996378E-1,6.83364E-1,-0E0,-6.076638E-1,4.1940734E-1,-0E0,1.05325E0,-0E0,3.3860017E-2,-3.9715122E-2,-0E0,-1.0994139E0,-0E0,-1.13141395E-1,-0E0,-0E0,5.490112E-1,-8.8036287E-1,-0E0,-0E0,7.553055E-1,-7.543246E-1,-0E0,7.3525496E-2,-0E0,1.054668E0,-0E0,2.0318214E-2,-0E0,-0E0,-1.6541803E-1,-4.0778052E-2,-0E0,9.495927E-2,-0E0,-1.35258E-1,-0E0,1.14626125E-1,-0E0,-1.2253047E-1,-0E0,1.5787396E-1,-0E0],"categories":[],"categories_nodes":[],"categories_segments":[],"categories_sizes":[],"default_left":[0,0,1,0,0,1,0,0,0,0,0,1,0,0,0,0,0,0,0,0,0,0,0,0,0,0,0,0,0,0,0,0,0,0,0,0,0,0,0,0,0,0,0,0,0,0,0,0,0,0,0,0,0,0,0,0,0,0,0,0,0,0,0,0,0],"id":7,"left_children":[1,3,5,7,9,11,13,15,17,19,21,23,25,-1,27,29,31,33,-1,35,37,-1,39,41,-1,43,45,-1,47,-1,49,-1,-1,51,-1,53,-1,-1,55,57,-1,-1,59,61,-1,-1,-1,63,-1,-1,-1,-1,-1,-1,-1,-1,-1,-1,-1,-1,-1,-1,-1,-1,-1],"loss_changes":[1.1026171E3,5.18667E1,2.1648499E1,2.4825989E1,2.2024818E1,1.2839828E1,1.0778809E0,1.9178286E-2,1.1813599E1,4.9601927E0,5.5843525E0,3.163231E0,1.0833414E1,0E0,5.360718E-1,1.91067E-2,7.879148E-1,2.244751E0,0E0,3.5884464E-1,2.0270376E0,0E0,3.9888153E0,2.9697704E0,0E0,2.263555E0,2.3892474E-1,0E0,3.8464355E-1,0E0,2.5905648E-1,0E0,0E0,2.104187E0,0E0,1.575873E0,0E0,0E0,2.0187025E0,1.0751877E0,0E0,0E0,3.8457108E-1,1.0357838E0,0E0,0E0,0E0,2.288208E-1,0E0,0E0,0E0,0E0,0E0,0E0,0E0,0E0,0E0,0E0,0E0,0E0,0E0,0E0,0E0,0E0,0E0],"parents":[2147483647,0,0,1,1,2,2,3,3,4,4,5,5,6,6,7,7,8,8,9,9,10,10,11,11,12,12,14,14,15,15,16,16,17,17,19,19,20,20,22,22,23,23,25,25,26,26,28,28,30,30,33,33,35,35,38,38,39,39,42,42,43,43,47,47],"right_children":[2,4,6,8,10,12,14,16,18,20,22,24,26,-1,28,30,32,34,-1,36,38,-1,40,42,-1,44,46,-1,48,-1,50,-1,-1,52,-1,54,-1,-1,56,58,-1,-1,60,62,-1,-1,-1,64,-1,-1,-1,-1,-1,-1,-1,-1,-1,-1,-1,-1,-1,-1,-1,-1,-1],"split_conditions":[6.379E0,6E0,6.69E0,2.678E-1,1.2688E0,1.4519E0,7.47E-2,5E0,2.7E1,1.02E2,1E0,7E6,1.8E1,-0E0,1.007E3,7.6E1,2.3E1,1.65E2,-0E0,1.9E1,1.206E3,-0E0,1.35E2,2E0,-0E0,1E0,1.321452E7,-0E0,5.7E1,-0E0,2.5E1,-3.9715122E-2,-0E0,2.3E0,-0E0,6.1E1,-0E0,-0E0,3.6E6,6.3E1,-0E0,-0E0,7.678E3,5.5E0,-0E0,7.3525496E-2,-0E0,7E0,-0E0,2.0318214E-2,-0E0,-0E0,-1.6541803E-1,-4.0778052E-2,-0E0,9.495927E-2,-0E0,-1.35258E-1,-0E0,1.14626125E-1,-0E0,-1.2253047E-1,-0E0,1.5787396E-1,-0E0],"split_indices":[4,4,4,3,3,3,3,19,18,0,17,6,16,0,1,0,18,0,0,18,1,0,0,16,0,18,6,0,18,0,5,0,0,4,0,16,0,0,6,16,0,0,15,9,0,0,0,10,0,0,0,0,0,0,0,0,0,0,0,0,0,0,0,0,0],"split_type":[0,0,0,0,0,0,0,0,0,0,0,0,0,0,0,0,0,0,0,0,0,0,0,0,0,0,0,0,0,0,0,0,0,0,0,0,0,0,0,0,0,0,0,0,0,0,0,0,0,0,0,0,0,0,0,0,0,0,0,0,0,0,0,0,0],"sum_hessian":[1.2775594E3,6.599024E2,6.176571E2,5.499727E2,1.0992967E2,9.789362E1,5.197635E2,2.5737741E1,5.24235E2,5.6891056E1,5.3038616E1,6.6033394E1,3.1860235E1,1.433248E0,5.1833026E2,1.5913933E1,9.823809E0,5.1549274E2,8.74224E0,2.7789055E1,2.9102001E1,9.600301E0,4.3438316E1,6.327801E1,2.7553792E0,1.7142845E1,1.471739E1,1.4591495E0,5.168711E2,2.760531E0,1.3153402E1,7.908949E0,1.9148602E0,5.0963208E2,5.860651E0,2.4520773E1,3.2682824E0,4.4218826E0,2.4680119E1,4.0369465E1,3.0688481E0,6.91163E0,5.636638E1,1.3870079E1,3.2727664E0,1.0713388E1,4.004002E0,5.158185E2,1.0526154E0,1.1526945E1,1.6264573E0,5.509987E0,5.041221E2,2.2456768E1,2.0640044E0,2.2517624E1,2.1624956E0,3.9291546E1,1.0779216E0,5.5168537E1,1.1978443E0,1.27311E1,1.1389796E0,5.139878E2,1.8306674E0],"tree_param":{"num_deleted":"0","num_feature":"21","num_nodes":"65","size_leaf_vector":"1"}},{"base_weights":[-0E0,-9.137064E-1,8.3133954E-1,-1.0096941E0,-1.2699658E-1,9.9275164E-2,9.6552545E-1,-0E0,-1.031689E0,-5.259874E-1,2.8845617E-1,3.0399936E-1,-4.8770213E-1,6.0746044E-1,1.0526751E0,-1.0679091E0,-3.003677E-1,-0E0,-6.8323094E-1,7.799378E-1,-0E0,-0E0,5.472231E-1,-6.0674894E-1,-0E0,7.474446E-1,-0E0,1.0555967E0,-0E0,-1.6041797E-1,-0E0,-4.9167714E-1,-0E0,-7.354013E-1,-0E0,1.2421686E-1,-0E0,-2.1730125E-2,9.189246E-2,-2.458628E-1,2.2051598E-1,-0E0,6.07181E-1,-9.532079E-2,-0E0,8.3104384E-1,-0E0,-0E0,-2.1277384E-1,-0E0,1.5934736E-1,-9.0226725E-2,-0E0,-1.19630516E-1,-0E0,3.576831E-2,-0E0,-0E0,-5.5279087E-2,-0E0,3.9507806E-2,9.697998E-2,-0E0,-0E0,1.259247E-1,-0E0,1.9690746E-2,-5.9948817E-2,-0E0],"categories":[],"categories_nodes":[],"categories_segments":[],"categories_sizes":[],"default_left":[0,0,0,0,0,0,1,0,0,0,0,0,0,0,0,0,0,0,0,0,0,0,0,0,0,0,1,0,0,0,0,0,0,0,0,0,0,0,0,0,0,0,0,0,0,0,0,1,0,0,0,0,0,0,0,0,0,0,0,0,0,0,0,0,0,0,0,0,0],"id":8,"left_children":[1,3,5,7,9,11,13,-1,15,17,19,21,23,25,27,29,31,-1,33,35,37,39,41,43,-1,45,47,49,-1,-1,-1,51,-1,53,-1,-1,-1,-1,55,57,59,-1,61,-1,-1,63,-1,65,67,-1,-1,-1,-1,-1,-1,-1,-1,-1,-1,-1,-1,-1,-1,-1,-1,-1,-1,-1,-1],"loss_changes":[8.940869E2,3.4459442E1,5.327011E1,1.1633301E1,1.4080994E1,1.2173133E1,2.9234924E0,0E0,2.7036133E0,4.054697E0,4.3122606E0,8.396386E0,2.0903878E0,1.3324703E1,1.0814514E0,8.009033E-1,3.7187655E0,0E0,1.7258186E0,1.1885643E-2,3.4878892E-1,2.3048918E0,2.9905968E0,2.762494E-1,0E0,5.776802E0,4.443576E-1,9.9139404E-1,0E0,0E0,0E0,2.791319E0,0E0,4.9112892E-1,0E0,0E0,0E0,0E0,6.649431E-1,1.196663E0,1.5221041E-1,0E0,2.2046223E0,0E0,0E0,6.7253876E-1,0E0,2.0682946E-1,9.558728E-1,0E0,0E0,0E0,0E0,0E0,0E0,0E0,0E0,0E0,0E0,0E0,0E0,0E0,0E0,0E0,0E0,0E0,0E0,0E0,0E0],"parents":[2147483647,0,0,1,1,2,2,3,3,4,4,5,5,6,6,8,8,9,9,10,10,11,11,12,12,13,13,14,14,15,15,16,16,18,18,19,19,20,20,21,21,22,22,23,23,25,25,26,26,27,27,31,31,33,33,38,38,39,39,40,40,42,42,45,45,47,47,48,48],"right_children":[2,4,6,8,10,12,14,-1,16,18,20,22,24,26,28,30,32,-1,34,36,38,40,42,44,-1,46,48,50,-1,-1,-1,52,-1,54,-1,-1,-1,-1,56,58,60,-1,62,-1,-1,64,-1,66,68,-1,-1,-1,-1,-1,-1,-1,-1,-1,-1,-1,-1,-1,-1,-1,-1,-1,-1,-1,-1],"split_conditions":[6.2E0,8E0,6.6E0,1.62E-1,1.6E1,2.424E0,6.898E0,-0E0,6.024E0,5.947256E2,1.3E1,1.1E1,4.6E1,6.683E3,1E1,1.65E2,2E0,-0E0,3.7E1,5.1666665E0,1.7E1,9E0,1.87E2,1.22E2,-0E0,2.7965864E7,1.2916E0,1.071E3,-0E0,-1.6041797E-1,-0E0,4.9E1,-0E0,6.024E0,-0E0,1.2421686E-1,-0E0,-2.1730125E-2,8E0,7.119E-1,1.103E3,-0E0,2.0419446E7,-9.532079E-2,-0E0,2E0,-0E0,1.402E3,2.6E0,-0E0,1.5934736E-1,-9.0226725E-2,-0E0,-1.19630516E-1,-0E0,3.576831E-2,-0E0,-0E0,-5.5279087E-2,-0E0,3.9507806E-2,9.697998E-2,-0E0,-0E0,1.259247E-1,-0E0,1.9690746E-2,-5.9948817E-2,-0E0],"split_indices":[4,18,4,3,16,3,4,0,4,8,18,16,16,15,4,0,14,0,18,11,18,18,15,0,0,6,3,1,0,0,0,16,0,4,0,0,0,0,17,3,1,0,6,0,0,16,0,1,11,0,0,0,0,0,0,0,0,0,0,0,0,0,0,0,0,0,0,0,0],"split_type":[0,0,0,0,0,0,0,0,0,0,0,0,0,0,0,0,0,0,0,0,0,0,0,0,0,0,0,0,0,0,0,0,0,0,0,0,0,0,0,0,0,0,0,0,0,0,0,0,0,0,0,0,0,0,0,0,0,0,0,0,0,0,0,0,0,0,0,0,0],"sum_hessian":[1.1700586E3,5.570754E2,6.129832E2,4.882119E2,6.8863434E1,1.0343858E2,5.0954465E2,9.813268E0,4.7839865E2,4.2668938E1,2.6194498E1,8.619409E1,1.7244497E1,1.1988849E2,3.8965616E2,4.4577524E2,3.2623436E1,1.0124572E1,3.254437E1,7.640563E0,1.8553936E1,3.398229E1,5.22118E1,1.5576745E1,1.667751E0,1.0184566E2,1.8042833E1,3.884534E2,1.2027797E0,4.4157904E2,4.196178E0,2.535692E1,7.266515E0,3.0801218E1,1.7431487E0,6.318567E0,1.3219962E0,6.935368E0,1.1618567E1,2.2786928E1,1.1195361E1,2.3499475E0,4.986185E1,1.4429127E1,1.1476191E0,9.007934E1,1.1766315E1,1.1739531E1,6.3033023E0,7.176456E0,3.8127692E2,2.3274822E1,2.0820975E0,2.619474E1,4.6064773E0,1.0317464E1,1.3011038E0,5.9469466E0,1.6839983E1,2.3041503E0,8.891211E0,4.8416378E1,1.4454741E0,1.6647903E0,8.841455E1,3.3451948E0,8.394336E0,5.184223E0,1.1190789E0],"tree_param":{"num_deleted":"0","num_feature":"21","num_nodes":"69","size_leaf_vector":"1"}},{"base_weights":[-0E0,-7.6129746E-1,8.828886E-1,-9.4370496E-1,-1.6529746E-1,5.232258E-1,1.0086782E0,-1.1952635E-1,-1.024145E0,1.6913587E-1,-6.6479367E-1,-0E0,7.368925E-1,1.0117806E0,-0E0,-3.5869938E-1,1.0685974E-2,-1.0355393E0,-0E0,5.03989E-1,-2.4160985E-2,-7.463704E-1,-0E0,3.3995804E-1,-3.6487734E-1,8.1179816E-1,-0E0,-0E0,1.0231491E0,-0E0,-5.237654E-1,-0E0,3.7458256E-2,-1.0405945E0,-0E0,6.3598716E-1,-0E0,5.3458274E-3,-3.0911186E-1,-7.9350257E-1,-0E0,4.971721E-1,-0E0,-5.067277E-1,-0E0,8.6970663E-1,-0E0,1.530997E-1,-0E0,-0E0,-9.641215E-2,-0E0,-7.950781E-4,-1.5634723E-1,-0E0,-0E0,1.0357528E-1,-0E0,2.2983447E-2,-6.4419456E-2,-0E0,-1.2659287E-1,-0E0,8.483326E-2,-0E0,-1.0730555E-2,4.2700847E-3,-9.6420705E-2,-0E0,1.3106911E-1,-0E0],"categories":[],"categories_nodes":[],"categories_segments":[],"categories_sizes":[],"default_left":[0,0,1,0,0,0,0,0,0,0,0,1,1,0,0,0,0,0,0,0,0,0,0,0,0,1,0,0,0,0,0,0,0,0,0,0,0,0,0,0,0,0,0,0,0,0,0,0,0,0,0,0,0,0,0,0,0,0,0,0,0,0,0,0,0,0,0,0,0,0,0],"id":9,"left_children":[1,3,5,7,9,11,13,15,17,19,21,23,25,27,-1,29,31,33,-1,35,37,39,-1,41,43,45,-1,-1,47,-1,49,51,-1,53,-1,55,-1,57,59,61,-1,63,65,67,-1,69,-1,-1,-1,-1,-1,-1,-1,-1,-1,-1,-1,-1,-1,-1,-1,-1,-1,-1,-1,-1,-1,-1,-1,-1,-1],"loss_changes":[7.253982E2,5.51593E1,1.0767609E1,2.0888428E1,2.8410303E1,1.3403305E1,9.830322E-1,3.8371155E0,6.164551E0,8.601143E0,5.225334E0,6.9403543E0,5.3204727E0,6.3201904E-1,0E0,3.606032E0,4.164854E-1,1.4886475E0,0E0,4.375964E0,2.3604507E0,3.4295387E0,0E0,2.130382E0,2.141236E0,3.4930115E0,0E0,0E0,4.373169E-2,0E0,2.480464E0,3.1794602E-4,0E0,8.6935425E-1,0E0,2.026845E0,0E0,4.7394148E-1,1.5961583E0,3.642868E0,0E0,1.3952146E0,5.403378E-2,2.1566195E0,0E0,3.2235336E-1,0E0,0E0,0E0,0E0,0E0,0E0,0E0,0E0,0E0,0E0,0E0,0E0,0E0,0E0,0E0,0E0,0E0,0E0,0E0,0E0,0E0,0E0,0E0,0E0,0E0],"parents":[2147483647,0,0,1,1,2,2,3,3,4,4,5,5,6,6,7,7,8,8,9,9,10,10,11,11,12,12,13,13,15,15,16,16,17,17,19,19,20,20,21,21,23,23,24,24,25,25,28,28,30,30,31,31,33,33,35,35,37,37,38,38,39,39,41,41,42,42,43,43,45,45],"right_children":[2,4,6,8,10,12,14,16,18,20,22,24,26,28,-1,30,32,34,-1,36,38,40,-1,42,44,46,-1,-1,48,-1,50,52,-1,54,-1,56,-1,58,60,62,-1,64,66,68,-1,70,-1,-1,-1,-1,-1,-1,-1,-1,-1,-1,-1,-1,-1,-1,-1,-1,-1,-1,-1,-1,-1,-1,-1,-1,-1],"split_conditions":[6.467E0,5.9E0,6.898E0,4.444E-1,1.3306E0,1.1E1,1E1,1.5E1,3.7E1,3.981E3,4.6E1,1.2916E0,2.2035508E7,1.071E3,-0E0,1E0,5.216E0,1.5E1,-0E0,1.3E6,7.307E-1,1.61E2,-0E0,5E0,6.864E0,2.5213E0,-0E0,-0E0,7E0,-0E0,7.47E-2,2.3E0,3.7458256E-2,8E1,-0E0,1.87E2,-0E0,8.7E1,2.6E0,2.6E1,-0E0,2.6197052E-1,1.2E2,1E1,-0E0,9.6E1,-0E0,1.530997E-1,-0E0,-0E0,-9.641215E-2,-0E0,-7.950781E-4,-1.5634723E-1,-0E0,-0E0,1.0357528E-1,-0E0,2.2983447E-2,-6.4419456E-2,-0E0,-1.2659287E-1,-0E0,8.483326E-2,-0E0,-1.0730555E-2,4.2700847E-3,-9.6420705E-2,-0E0,1.3106911E-1,-0E0],"split_indices":[4,4,4,3,3,16,4,16,18,15,16,3,6,1,0,17,4,11,0,5,3,0,0,17,4,3,0,0,10,0,3,4,0,16,0,15,0,0,11,19,0,7,0,20,0,16,0,0,0,0,0,0,0,0,0,0,0,0,0,0,0,0,0,0,0,0,0,0,0,0,0],"split_type":[0,0,0,0,0,0,0,0,0,0,0,0,0,0,0,0,0,0,0,0,0,0,0,0,0,0,0,0,0,0,0,0,0,0,0,0,0,0,0,0,0,0,0,0,0,0,0,0,0,0,0,0,0,0,0,0,0,0,0,0,0,0,0,0,0,0,0,0,0,0,0],"sum_hessian":[1.0720847E3,5.755166E2,4.9656808E2,4.3069565E2,1.44821E2,1.4681656E2,3.4975153E2,4.6293026E1,3.8440262E2,8.030365E1,6.451734E1,4.985522E1,9.6961334E1,3.4854874E2,1.2027797E0,3.1824846E1,1.446818E1,3.8166168E2,2.7409303E0,3.968847E1,4.0615185E1,5.9839188E1,4.6781526E0,3.2484634E1,1.7370588E1,8.734854E1,9.612786E0,7.176456E0,3.4137228E2,5.618351E0,2.6206495E1,1.1322309E1,3.1458704E0,3.793032E2,2.3584783E0,3.4435818E1,5.2526507E0,1.9160418E1,2.1454767E1,5.798365E1,1.8555362E0,2.1937414E1,1.054722E1,1.5654623E1,1.7159655E0,8.02697E1,7.078842E0,3.403142E2,1.0580645E0,4.1866007E0,2.2019894E1,3.6083283E0,7.71398E0,3.7577286E2,3.5303466E0,1.7967672E0,3.263905E1,2.6196072E0,1.6540812E1,1.7903288E1,3.5514803E0,5.548855E1,2.4951022E0,2.0324444E1,1.6129692E0,5.626687E0,4.920533E0,1.3480645E1,2.1739776E0,7.9240555E1,1.0291469E0],"tree_param":{"num_deleted":"0","num_feature":"21","num_nodes":"71","size_leaf_vector":"1"}},{"base_weights":[-0E0,-8.136321E-1,7.336056E-1,-9.204568E-1,-3.289372E-2,1.6577849E-1,9.01163E-1,-0E0,-9.455263E-1,-4.145838E-1,2.9591355E-1,-0E0,5.4664314E-1,-0E0,9.202287E-1,-9.995046E-1,-2.568108E-1,-0E0,-5.7058567E-1,1.0833264E-1,-0E0,2.122793E-1,-4.4044414E-1,7.0186913E-1,-0E0,-0E0,1.9728495E-1,-0E0,9.3084514E-1,-1.0146258E0,-0E0,-4.2122415E-1,-0E0,-6.233028E-1,-0E0,-9.478186E-3,7.254766E-2,-0E0,4.1715762E-1,-5.4297316E-1,-0E0,-0E0,7.503893E-1,-0E0,4.593766E-2,2.5391763E-1,9.715336E-1,-1.527184E-1,-0E0,-0E0,-9.0471335E-2,-9.835098E-2,-0E0,3.238781E-2,-0E0,-0E0,-5.087345E-3,-0E0,7.6032735E-2,-9.6464984E-2,-0E0,1.15112156E-1,-0E0,-0E0,7.798359E-2,1.4567521E-1,-0E0],"categories":[],"categories_nodes":[],"categories_segments":[],"categories_sizes":[],"default_left":[0,0,0,0,0,0,0,0,0,0,0,0,0,0,1,0,0,0,0,0,0,0,0,0,0,0,0,0,0,0,0,0,0,1,0,0,0,0,0,0,0,0,1,0,0,0,0,0,0,0,0,0,0,0,0,0,0,0,0,0,0,0,0,0,0,0,0],"id":10,"left_children":[1,3,5,7,9,11,13,-1,15,17,19,21,23,25,27,29,31,-1,33,-1,35,37,39,41,-1,-1,43,-1,45,47,-1,49,-1,51,-1,-1,53,55,57,59,-1,-1,61,-1,-1,63,65,-1,-1,-1,-1,-1,-1,-1,-1,-1,-1,-1,-1,-1,-1,-1,-1,-1,-1,-1,-1],"loss_changes":[5.905928E2,3.2658234E1,4.220572E1,1.01944275E1,9.6477785E0,1.1685707E1,1.8206787E0,0E0,5.5426025E0,3.2285495E0,3.3483531E0,9.617405E0,4.6877604E0,5.176332E-1,2.7938843E0,2.7488708E0,3.5023732E0,0E0,1.3352661E0,0E0,1.18442684E-1,3.2112856E0,3.1166E0,1.3274384E0,0E0,0E0,6.1168766E-1,0E0,1.440094E0,2.142395E0,0E0,3.972167E0,0E0,7.002945E-1,0E0,0E0,5.655189E-1,1.25002675E-2,1.8119469E0,2.8642511E0,0E0,0E0,5.107918E-1,0E0,0E0,4.9981203E0,9.1937256E-1,0E0,0E0,0E0,0E0,0E0,0E0,0E0,0E0,0E0,0E0,0E0,0E0,0E0,0E0,0E0,0E0,0E0,0E0,0E0,0E0],"parents":[2147483647,0,0,1,1,2,2,3,3,4,4,5,5,6,6,8,8,9,9,10,10,11,11,12,12,13,13,14,14,15,15,16,16,18,18,20,20,21,21,22,22,23,23,26,26,28,28,29,29,31,31,33,33,36,36,37,37,38,38,39,39,42,42,45,45,46,46],"right_children":[2,4,6,8,10,12,14,-1,16,18,20,22,24,26,28,30,32,-1,34,-1,36,38,40,42,-1,-1,44,-1,46,48,-1,50,-1,52,-1,-1,54,56,58,60,-1,-1,62,-1,-1,64,66,-1,-1,-1,-1,-1,-1,-1,-1,-1,-1,-1,-1,-1,-1,-1,-1,-1,-1,-1,-1],"split_conditions":[6.2E0,8E0,6.69E0,1.62E-1,1.6E1,2.1E1,1E0,-0E0,1.17E2,5.947256E2,1.3E1,1.2751E0,1.394661E6,7.003E0,7.47E-2,6.8E1,2.8E1,-0E0,3.7E1,1.0833264E-1,1.7E1,1.849E3,1.1E1,1.87E2,-0E0,-0E0,3.722E-1,-0E0,1.371E3,1.5E1,-0E0,1.2857143E0,-0E0,3E0,-0E0,-9.478186E-3,8E0,7.914E-1,8.8E1,1.26E2,-0E0,-0E0,1.0349E4,-0E0,4.593766E-2,6E0,7E0,-1.527184E-1,-0E0,-0E0,-9.0471335E-2,-9.835098E-2,-0E0,3.238781E-2,-0E0,-0E0,-5.087345E-3,-0E0,7.6032735E-2,-9.6464984E-2,-0E0,1.15112156E-1,-0E0,-0E0,7.798359E-2,1.4567521E-1,-0E0],"split_indices":[4,18,4,3,16,16,16,0,0,8,18,3,6,4,3,16,16,0,18,0,18,1,18,15,0,0,3,0,1,11,0,11,0,13,0,0,17,3,0,0,0,0,1,0,0,16,10,0,0,0,0,0,0,0,0,0,0,0,0,0,0,0,0,0,0,0,0],"split_type":[0,0,0,0,0,0,0,0,0,0,0,0,0,0,0,0,0,0,0,0,0,0,0,0,0,0,0,0,0,0,0,0,0,0,0,0,0,0,0,0,0,0,0,0,0,0,0,0,0,0,0,0,0,0,0,0,0,0,0,0,0,0,0,0,0,0,0],"sum_hessian":[9.828133E2,4.639824E2,5.1883093E2,4.0022852E2,6.3753883E1,1.2868735E2,3.901436E2,9.722623E0,3.905059E2,3.827125E1,2.548263E1,8.093441E1,4.7752934E1,1.3992853E1,3.7615073E2,3.518622E2,3.864368E1,9.807534E0,2.8463718E1,7.684548E0,1.779808E1,4.64831E1,3.445131E1,3.710085E1,1.06520815E1,4.205215E0,9.787638E0,5.386417E0,3.707643E2,3.4401895E2,7.8432446E0,3.1897137E1,6.7465425E0,2.672057E1,1.7431487E0,6.340056E0,1.1458025E1,1.8595282E1,2.7887821E1,3.2039062E1,2.4122472E0,2.7247841E0,3.437607E1,1.3550892E0,8.4325485E0,3.156361E1,3.392007E2,3.4091666E2,3.1022983E0,7.445705E0,2.4451431E1,2.520579E1,1.5147806E0,1.0197429E1,1.2605966E0,1.132706E1,7.2682214E0,3.3076234E0,2.4580198E1,2.8497364E1,3.541697E0,3.3283337E1,1.0927317E0,8.432084E0,2.3131527E1,3.376738E2,1.5269177E0],"tree_param":{"num_deleted":"0","num_feature":"21","num_nodes":"67","size_leaf_vector":"1"}},{"base_weights":[-0E0,-6.652966E-1,7.924638E-1,-8.57422E-1,-1.0296687E-1,4.2788598E-1,9.318288E-1,-7.7927336E-2,-9.583051E-1,1.1690814E-1,-6.294724E-1,5.6755173E-1,-0E0,4.318827E-2,1.4385363E-1,-2.713706E-1,5.129907E-2,-9.6855295E-1,-0E0,4.9705222E-1,-0E0,-7.38856E-1,-0E0,6.547567E-1,-0E0,-0E0,-3.441744E-1,2.6432973E-1,-0E0,-0E0,-3.9308956E-1,4.8814796E-2,-0E0,-0E0,-9.778175E-1,-0E0,7.0338356E-1,-2.9668322E-1,1.5985534E-1,-7.845927E-1,-0E0,7.1917623E-1,-0E0,1.0885389E-1,-0E0,-4.7978017E-1,-0E0,-0E0,4.234755E-2,-0E0,-7.594281E-2,-1.4732961E-1,-0E0,1.1321858E-1,-0E0,-7.2107E-2,-0E0,6.147809E-2,-0E0,-0E0,-1.2334369E-1,-0E0,1.09119006E-1,-0E0,3.2444786E-2,-9.041952E-2,-0E0],"categories":[],"categories_nodes":[],"categories_segments":[],"categories_sizes":[],"default_left":[0,0,1,0,0,0,0,0,0,0,0,0,1,0,0,0,0,0,0,0,0,0,0,0,0,0,0,0,0,0,0,0,0,0,0,0,0,0,0,0,0,0,0,0,0,0,0,0,0,0,0,0,0,0,0,0,0,0,0,0,0,0,0,0,0,0,0],"id":11,"left_children":[1,3,5,7,9,11,13,15,17,19,21,23,25,27,-1,29,31,33,-1,35,37,39,-1,41,-1,43,45,47,-1,-1,49,-1,-1,-1,51,-1,53,55,57,59,-1,61,-1,63,-1,65,-1,-1,-1,-1,-1,-1,-1,-1,-1,-1,-1,-1,-1,-1,-1,-1,-1,-1,-1,-1,-1],"loss_changes":[4.806444E2,4.6609543E1,1.097702E1,2.1109741E1,1.9583754E1,1.1050831E1,1.1995087E0,2.7919674E0,4.464203E0,6.381778E0,5.259794E0,5.4272346E0,1.5345191E0,1.047881E0,0E0,2.4716442E0,8.477123E-1,2.4235535E0,0E0,3.168943E0,3.8473127E0,1.9775524E0,0E0,3.1051178E0,0E0,2.0251521E-1,1.2109784E0,6.596482E-2,0E0,0E0,2.189629E0,0E0,0E0,0E0,7.635803E-1,0E0,6.19771E-1,2.1766589E0,3.188644E0,2.0633354E0,0E0,5.715065E-1,0E0,5.1488936E-1,0E0,1.1493196E0,0E0,0E0,0E0,0E0,0E0,0E0,0E0,0E0,0E0,0E0,0E0,0E0,0E0,0E0,0E0,0E0,0E0,0E0,0E0,0E0,0E0],"parents":[2147483647,0,0,1,1,2,2,3,3,4,4,5,5,6,6,7,7,8,8,9,9,10,10,11,11,12,12,13,13,15,15,16,16,17,17,19,19,20,20,21,21,23,23,25,25,26,26,27,27,30,30,34,34,36,36,37,37,38,38,39,39,41,41,43,43,45,45],"right_children":[2,4,6,8,10,12,14,16,18,20,22,24,26,28,-1,30,32,34,-1,36,38,40,-1,42,-1,44,46,48,-1,-1,50,-1,-1,-1,52,-1,54,56,58,60,-1,62,-1,64,-1,66,-1,-1,-1,-1,-1,-1,-1,-1,-1,-1,-1,-1,-1,-1,-1,-1,-1,-1,-1,-1,-1],"split_conditions":[6.467E0,5.9E0,6.898E0,4.934E-1,1.5619E0,6.621E3,1.225E3,1.15E2,4.1E1,1E0,1.35E2,2.2035508E7,1.2916E0,1.1963665E3,1.4385363E-1,1E0,1.865E3,2.3E0,-0E0,1.1E1,4E0,2.6E1,-0E0,2.424E0,-0E0,1.8530297E-1,6.85E0,1.007E3,-0E0,-0E0,2.3E0,4.8814796E-2,-0E0,-0E0,1.65E2,-0E0,1.44E2,1.06E2,9E0,8.1E1,-0E0,1E0,-0E0,8.2E1,-0E0,1.8E1,-0E0,-0E0,4.234755E-2,-0E0,-7.594281E-2,-1.4732961E-1,-0E0,1.1321858E-1,-0E0,-7.2107E-2,-0E0,6.147809E-2,-0E0,-0E0,-1.2334369E-1,-0E0,1.09119006E-1,-0E0,3.2444786E-2,-9.041952E-2,-0E0],"split_indices":[4,4,4,3,3,15,1,0,18,17,0,6,3,8,0,17,1,4,0,16,17,19,0,3,0,7,4,1,0,0,4,0,0,0,0,0,0,0,17,0,0,16,0,0,0,16,0,0,0,0,0,0,0,0,0,0,0,0,0,0,0,0,0,0,0,0,0],"split_type":[0,0,0,0,0,0,0,0,0,0,0,0,0,0,0,0,0,0,0,0,0,0,0,0,0,0,0,0,0,0,0,0,0,0,0,0,0,0,0,0,0,0,0,0,0,0,0,0,0,0,0,0,0,0,0,0,0,0,0,0,0,0,0,0,0,0,0],"sum_hessian":[9.036683E2,4.888251E2,4.1484317E2,3.543146E2,1.3451051E2,1.3163562E2,2.8320755E2,4.8731857E1,3.0558273E2,8.806345E1,4.6447063E1,1.0761153E2,2.4024092E1,1.6950043E1,2.662575E2,3.8207417E1,1.0524443E1,3.038354E2,1.7473624E0,2.7384943E1,6.0678513E1,4.2384674E1,4.0623884E0,9.264194E1,1.4969596E1,1.4581587E1,9.442505E0,1.203195E1,4.918092E0,5.840689E0,3.2366726E1,4.774313E0,5.75013E0,3.2616723E0,3.005737E2,9.06279E0,1.8322153E1,3.0382277E1,3.0296234E1,4.0402172E1,1.9825009E0,8.21912E1,1.0450734E1,1.3579261E1,1.002326E0,8.415315E0,1.0271902E0,1.205922E0,1.0826028E1,5.949701E0,2.6417025E1,2.9623474E2,4.338976E0,1.6376316E1,1.9458376E0,1.8638634E1,1.1743642E1,2.0419853E1,9.876381E0,1.2279763E0,3.91742E1,1.5415285E0,8.064967E1,1.8800762E0,1.1699184E1,7.120943E0,1.2943714E0],"tree_param":{"num_deleted":"0","num_feature":"21","num_nodes":"67","size_leaf_vector":"1"}},{"base_weights":[-0E0,-6.188447E-1,7.4789363E-1,-8.0235934E-1,-5.0611038E-2,3.8480166E-1,8.94013E-1,-8.6482465E-1,-0E0,9.277167E-2,-6.4678603E-1,-0E0,5.926022E-1,8.984456E-1,-0E0,-0E0,-8.9507705E-1,-7.104635E-2,3.4038335E-1,-9.6887425E-2,4.862762E-1,-1.0752167E-1,-0E0,2.0176357E-1,-2.9913735E-1,6.690007E-1,-0E0,4.291459E-3,9.322157E-1,-9.185065E-1,-0E0,-2.0724036E-1,-0E0,4.653744E-1,-0E0,-0E0,-3.6564076E-1,7.639808E-1,-0E0,3.544659E-1,-0E0,-4.6141317E-1,-0E0,7.271152E-1,-0E0,2.2086124E-1,-0E0,-0E0,9.508715E-1,-1.405536E-1,-0E0,-0E0,-3.333832E-2,8.573762E-2,-0E0,3.189015E-2,-0E0,-6.762391E-2,-0E0,1.24528766E-1,-0E0,6.931478E-2,-0E0,-1.8962525E-2,-0E0,-8.570759E-2,-0E0,1.1208651E-1,-0E0,-0E0,3.540039E-2,1.4255735E-1,-0E0],"categories":[],"categories_nodes":[],"categories_segments":[],"categories_sizes":[],"default_left":[0,0,1,0,0,0,0,0,0,0,0,1,1,0,0,0,0,0,0,0,0,0,0,0,0,1,0,0,0,0,0,0,0,0,0,0,0,0,0,0,0,0,0,1,0,0,0,0,0,0,0,0,0,0,0,0,0,0,0,0,0,0,0,0,0,0,0,0,0,0,0,0,0],"id":12,"left_children":[1,3,5,7,9,11,13,15,17,19,21,23,25,27,-1,-1,29,31,33,35,37,-1,-1,39,41,43,-1,45,47,49,-1,51,-1,53,-1,55,57,59,-1,61,63,65,-1,67,-1,69,-1,-1,71,-1,-1,-1,-1,-1,-1,-1,-1,-1,-1,-1,-1,-1,-1,-1,-1,-1,-1,-1,-1,-1,-1,-1,-1],"loss_changes":[3.88721E2,4.1755554E1,1.0776566E1,2.0033524E1,1.4390351E1,1.0081663E1,1.1192322E0,1.0641266E1,1.6583289E0,9.711969E0,5.7529926E-1,3.1553078E0,3.8847713E0,1.6209717E0,0E0,0E0,8.88829E0,4.4562313E-1,1.0485833E0,3.1796966E0,6.743004E0,0E0,0E0,1.5033772E0,1.5971177E0,2.4260483E0,0E0,7.307722E-1,8.468628E-1,7.0905E0,0E0,8.495629E-3,0E0,1.0436244E0,0E0,7.843252E-1,9.338286E-1,2.0354252E0,0E0,1.1691656E0,1.425184E-1,1.5384037E0,0E0,3.8573837E-1,0E0,4.2726815E-2,0E0,0E0,1.3586426E-1,0E0,0E0,0E0,0E0,0E0,0E0,0E0,0E0,0E0,0E0,0E0,0E0,0E0,0E0,0E0,0E0,0E0,0E0,0E0,0E0,0E0,0E0,0E0,0E0],"parents":[2147483647,0,0,1,1,2,2,3,3,4,4,5,5,6,6,7,7,8,8,9,9,10,10,11,11,12,12,13,13,16,16,17,17,18,18,19,19,20,20,23,23,24,24,25,25,27,27,28,28,29,29,31,31,33,33,35,35,36,36,37,37,39,39,40,40,41,41,43,43,45,45,48,48],"right_children":[2,4,6,8,10,12,14,16,18,20,22,24,26,28,-1,-1,30,32,34,36,38,-1,-1,40,42,44,-1,46,48,50,-1,52,-1,54,-1,56,58,60,-1,62,64,66,-1,68,-1,70,-1,-1,72,-1,-1,-1,-1,-1,-1,-1,-1,-1,-1,-1,-1,-1,-1,-1,-1,-1,-1,-1,-1,-1,-1,-1,-1],"split_conditions":[6.467E0,1.07E2,6.898E0,1.9E1,1.7E6,1.1E1,1E1,1.62E-1,5.707E0,1.6E1,6.157E0,1.2916E0,2.2035508E7,1.225E3,-0E0,-0E0,7.9E1,4.1E1,4E0,1.6666666E0,1.1767E0,-1.0752167E-1,-0E0,5E0,2.2222223E0,2.5213E0,-0E0,1.1963665E3,1E0,1.5E1,-0E0,2.551E3,-0E0,9E4,-0E0,7.444E-1,6.157E0,5.595E3,-0E0,7.243E3,1.2E2,6.864E0,-0E0,1.6E2,-0E0,1.007E3,-0E0,-0E0,7.864E3,-1.405536E-1,-0E0,-0E0,-3.333832E-2,8.573762E-2,-0E0,3.189015E-2,-0E0,-6.762391E-2,-0E0,1.24528766E-1,-0E0,6.931478E-2,-0E0,-1.8962525E-2,-0E0,-8.570759E-2,-0E0,1.1208651E-1,-0E0,-0E0,3.540039E-2,1.4255735E-1,-0E0],"split_indices":[4,0,4,18,5,16,4,3,4,16,4,3,6,1,0,0,16,18,12,9,3,0,0,17,11,3,0,8,16,11,0,15,0,5,0,3,4,15,0,15,0,4,0,0,0,1,0,0,15,0,0,0,0,0,0,0,0,0,0,0,0,0,0,0,0,0,0,0,0,0,0,0,0],"split_type":[0,0,0,0,0,0,0,0,0,0,0,0,0,0,0,0,0,0,0,0,0,0,0,0,0,0,0,0,0,0,0,0,0,0,0,0,0,0,0,0,0,0,0,0,0,0,0,0,0,0,0,0,0,0,0,0,0,0,0,0,0,0,0,0,0,0,0,0,0,0,0,0,0],"sum_hessian":[8.314713E2,4.5169086E2,3.797805E2,3.3164508E2,1.20045784E2,1.25464386E2,2.5431609E2,3.1176315E2,1.9881937E1,9.033243E1,2.9713356E1,4.5885815E1,7.957857E1,2.5316489E2,1.1512084E0,7.6692996E0,3.0409384E2,9.654246E0,1.0227691E1,5.1542606E1,3.8789825E1,2.4432535E1,5.280821E0,2.8865643E1,1.7020174E1,7.036452E1,9.214052E0,1.6394854E1,2.3677002E2,2.991365E2,4.9573255E0,8.411271E0,1.2429748E0,8.68014E0,1.5475514E0,2.7405287E1,2.413732E1,2.517894E1,1.3610885E1,1.8943441E1,9.9222E0,1.2619461E1,4.4007115E0,6.3616066E1,6.7484527E0,1.1476762E1,4.918092E0,8.399435E0,2.2837059E2,2.9297034E2,6.1661744E0,1.4691533E0,6.942118E0,7.6740446E0,1.0060947E0,1.370158E1,1.3703707E1,1.9087486E1,5.049833E0,2.351963E1,1.6593106E0,1.5026406E1,3.9170358E0,5.334487E0,4.5877132E0,1.1597508E1,1.0219533E0,6.0223682E1,3.392383E0,1.205922E0,1.027084E1,2.2689615E2,1.4744488E0],"tree_param":{"num_deleted":"0","num_feature":"21","num_nodes":"73","size_leaf_vector":"1"}},{"base_weights":[3.8156938E-4,-6.8821645E-1,6.018967E-1,-1.1773279E-2,-8.3520466E-1,1.7361332E-1,8.131488E-1,-3.0497235E-1,5.131462E-1,-8.764039E-1,-0E0,-0E0,5.483313E-1,1.1889515E-1,8.702966E-1,-0E0,-4.8297575E-1,6.372914E-1,-0E0,-9.003385E-1,-0E0,-9.40717E-2,-0E0,1.7532225E-1,-3.8657248E-1,7.0663935E-1,-0E0,-0E0,3.844569E-1,-0E0,8.935682E-1,-0E0,8.073668E-2,-5.7681376E-1,-0E0,6.9784784E-1,-0E0,-9.0929E-1,-0E0,-2.8484342E-1,-0E0,-0E0,3.6619154E-1,-5.3623575E-1,-0E0,-0E0,7.5215137E-1,-8.039264E-2,-0E0,-0E0,4.5190126E-1,-0E0,8.167461E-2,9.077566E-1,-0E0,3.241843E-2,-0E0,-0E0,-1.0242003E-1,1.18541986E-1,-0E0,-1.3745554E-1,-0E0,-5.472165E-2,-0E0,1.6980688E-3,-8.669356E-3,-0E0,8.163406E-2,-9.092427E-2,-0E0,1.1502453E-1,-0E0,-2.6642619E-2,-0E0,7.553143E-2,-0E0,-0E0,2.297611E-2,1.3610071E-1,-0E0],"categories":[],"categories_nodes":[],"categories_segments":[],"categories_sizes":[],"default_left":[0,0,0,0,0,0,0,0,0,0,0,0,0,0,0,0,0,1,0,0,0,0,0,1,0,0,0,0,0,0,0,0,0,0,0,0,0,0,0,0,0,0,0,0,0,0,1,0,0,0,0,0,0,0,0,0,0,0,0,0,0,0,0,0,0,0,0,0,0,0,0,0,0,0,0,0,0,0,0,0,0],"id":13,"left_children":[1,3,5,7,9,11,13,15,17,19,21,23,25,27,29,31,33,35,-1,37,-1,39,-1,41,43,45,-1,47,49,51,53,-1,55,57,-1,59,-1,61,-1,63,-1,65,67,69,-1,-1,71,73,-1,-1,75,-1,77,79,-1,-1,-1,-1,-1,-1,-1,-1,-1,-1,-1,-1,-1,-1,-1,-1,-1,-1,-1,-1,-1,-1,-1,-1,-1,-1,-1],"loss_changes":[3.215277E2,2.9980927E1,3.107074E1,1.0780741E1,7.007004E0,1.3369877E1,3.896408E0,5.6930504E0,2.365003E0,5.5632477E0,1.5945715E-1,8.124543E0,5.2649918E0,3.01096E0,1.1846313E0,8.05879E-2,3.9219809E0,1.0132904E0,0E0,3.0094757E0,0E0,9.7787887E-1,0E0,2.228795E0,3.537406E0,2.4988308E0,0E0,6.87702E-2,9.033153E-1,7.613186E-2,3.4037628E0,0E0,4.2385027E-1,2.8266897E0,0E0,1.2032881E0,0E0,1.5142365E0,0E0,6.0779893E-1,0E0,5.896986E-2,3.8908677E0,2.237342E0,0E0,0E0,5.834751E-1,2.2555748E-1,0E0,0E0,5.864115E-1,0E0,1.699177E-1,2.9187012E-1,0E0,0E0,0E0,0E0,0E0,0E0,0E0,0E0,0E0,0E0,0E0,0E0,0E0,0E0,0E0,0E0,0E0,0E0,0E0,0E0,0E0,0E0,0E0,0E0,0E0,0E0,0E0],"parents":[2147483647,0,0,1,1,2,2,3,3,4,4,5,5,6,6,7,7,8,8,9,9,10,10,11,11,12,12,13,13,14,14,15,15,16,16,17,17,19,19,21,21,23,23,24,24,25,25,27,27,28,28,29,29,30,30,32,32,33,33,35,35,37,37,39,39,41,41,42,42,43,43,46,46,47,47,50,50,52,52,53,53],"right_children":[2,4,6,8,10,12,14,16,18,20,22,24,26,28,30,32,34,36,-1,38,-1,40,-1,42,44,46,-1,48,50,52,54,-1,56,58,-1,60,-1,62,-1,64,-1,66,68,70,-1,-1,72,74,-1,-1,76,-1,78,80,-1,-1,-1,-1,-1,-1,-1,-1,-1,-1,-1,-1,-1,-1,-1,-1,-1,-1,-1,-1,-1,-1,-1,-1,-1,-1,-1],"split_conditions":[6.157E0,6.201E-1,6.797E0,5.6E0,1.4E2,2.1E1,1.422E3,2.3E0,6.7E5,6.8E1,3.1E1,1.2916E0,1.015E6,6E0,1E0,7.4E1,3.1E1,3.717E3,-0E0,3.9E1,-0E0,5.82E0,-0E0,1.849E3,1.18E2,6.3E1,-0E0,7.336E3,6.864E0,7.003E0,1E1,-0E0,6.4782E2,1E0,-0E0,6.932E3,-0E0,6.125E0,-0E0,9E0,-0E0,7.307E-1,8.9E1,1.7E1,-0E0,-0E0,1.1182E4,2.4E1,-0E0,-0E0,1.6E1,-0E0,4.018E-1,2E8,-0E0,3.241843E-2,-0E0,-0E0,-1.0242003E-1,1.18541986E-1,-0E0,-1.3745554E-1,-0E0,-5.472165E-2,-0E0,1.6980688E-3,-8.669356E-3,-0E0,8.163406E-2,-9.092427E-2,-0E0,1.1502453E-1,-0E0,-2.6642619E-2,-0E0,7.553143E-2,-0E0,-0E0,2.297611E-2,1.3610071E-1,-0E0],"split_indices":[4,3,4,4,0,16,1,4,5,16,16,3,6,16,16,0,18,1,0,18,0,4,0,1,0,15,0,15,4,4,4,0,8,17,0,15,0,4,0,17,0,3,0,18,0,0,1,18,0,0,17,0,3,5,0,0,0,0,0,0,0,0,0,0,0,0,0,0,0,0,0,0,0,0,0,0,0,0,0,0,0],"split_type":[0,0,0,0,0,0,0,0,0,0,0,0,0,0,0,0,0,0,0,0,0,0,0,0,0,0,0,0,0,0,0,0,0,0,0,0,0,0,0,0,0,0,0,0,0,0,0,0,0,0,0,0,0,0,0,0,0,0,0,0,0,0,0,0,0,0,0,0,0,0,0,0,0,0,0,0,0,0,0,0,0],"sum_hessian":[7.705949E2,3.5399216E2,4.1660278E2,7.179752E1,2.8219464E2,1.499368E2,2.66666E2,5.4992588E1,1.6804941E1,2.6508688E2,1.7107733E1,9.359819E1,5.6338604E1,2.9794611E1,2.3687137E2,1.0771536E1,4.422105E1,1.5483565E1,1.3213753E0,2.5785898E2,7.2279186E0,1.4506979E1,2.6007538E0,5.4720608E1,3.8877586E1,4.3069843E1,1.326876E1,9.750183E0,2.0044428E1,1.087417E1,2.2599721E2,1.9202464E0,8.85129E0,4.1741486E1,2.4795635E0,1.4410629E1,1.0729363E0,2.56378E2,1.4809705E0,1.0505859E1,4.001119E0,2.8263388E1,2.645722E1,3.0819765E1,8.05782E0,1.0496869E0,4.2020157E1,7.12881E0,2.621373E0,2.083288E0,1.796114E1,2.9731982E0,7.9009724E0,2.2300941E2,2.9877877E0,7.201089E0,1.6502004E0,7.2031064E0,3.453838E1,1.2262425E1,2.1482034E0,2.5211308E2,4.2649283E0,9.49569E0,1.0101687E0,1.4972175E1,1.3291213E1,3.478198E0,2.2979023E1,2.9180433E1,1.6393322E0,4.0926487E1,1.093669E0,5.7428446E0,1.3859656E0,1.5938036E1,2.0231042E0,1.009924E0,6.891048E0,2.2175093E2,1.2584907E0],"tree_param":{"num_deleted":"0","num_feature":"21","num_nodes":"81","size_leaf_vector":"1"}},{"base_weights":[2.7283225E-3,-6.4192325E-1,5.606282E-1,-0E0,-7.927486E-1,2.0412801E-1,8.1649715E-1,-2.6114714E-1,4.3417403E-1,-8.726575E-1,-8.858785E-2,-0E0,5.6354016E-1,8.214331E-1,-0E0,-4.6634087E-1,-0E0,5.5095166E-1,-0E0,-8.981291E-1,-0E0,-2.7166197E-1,-0E0,-1.5343465E-1,3.471352E-1,6.877248E-1,-0E0,-0E0,8.437885E-1,-0E0,-6.7964727E-1,6.152528E-1,-0E0,-9.1225034E-1,-0E0,-0E0,-4.2592987E-1,6.2977396E-2,-0E0,-0E0,-3.446092E-1,4.6477473E-1,-0E0,-0E0,7.25599E-1,-0E0,1.0191303E-1,-0E0,8.4907085E-1,-1.1355995E-1,-0E0,1.04694515E-1,-0E0,-1.3742699E-1,-0E0,-8.1238635E-2,-0E0,-0E0,1.1156141E-2,2.339522E-2,-0E0,-0E0,-6.831649E-2,8.512493E-2,-0E0,1.1108134E-1,-0E0,-0E0,3.267532E-2,-0E0,1.2918383E-1],"categories":[],"categories_nodes":[],"categories_segments":[],"categories_sizes":[],"default_left":[0,0,0,0,0,0,1,0,0,0,0,0,0,0,0,0,0,0,0,0,0,0,0,0,0,0,0,0,0,0,0,0,0,0,0,0,0,0,0,0,0,0,0,0,1,0,0,0,0,0,0,0,0,0,0,0,0,0,0,0,0,0,0,0,0,0,0,0,0,0,0],"id":14,"left_children":[1,3,5,7,9,11,13,15,17,19,21,23,25,27,-1,29,-1,31,-1,33,-1,35,37,39,41,43,45,-1,47,-1,49,51,-1,53,-1,-1,55,57,-1,59,61,63,-1,-1,65,-1,67,-1,69,-1,-1,-1,-1,-1,-1,-1,-1,-1,-1,-1,-1,-1,-1,-1,-1,-1,-1,-1,-1,-1,-1],"loss_changes":[2.5849673E2,2.7300247E1,2.8462265E1,7.7159796E0,8.023376E0,1.467849E1,9.73938E-1,4.746928E0,1.9712207E0,4.593033E0,2.1186473E0,5.659136E0,2.9153595E0,7.3405457E-1,0E0,5.2428856E0,0E0,8.45181E-1,0E0,2.4207153E0,0E0,2.0780406E0,3.158699E-2,4.663887E0,1.6210947E0,2.1589508E0,1.6164702E-1,0E0,3.6683655E-1,0E0,2.7543077E0,9.3837595E-1,0E0,1.9387054E0,0E0,0E0,2.0620246E0,2.0605251E-3,0E0,6.207046E-1,2.3426428E0,2.1231556E0,0E0,0E0,7.6729965E-1,0E0,5.339023E-1,0E0,4.7921753E-1,0E0,0E0,0E0,0E0,0E0,0E0,0E0,0E0,0E0,0E0,0E0,0E0,0E0,0E0,0E0,0E0,0E0,0E0,0E0,0E0,0E0,0E0],"parents":[2147483647,0,0,1,1,2,2,3,3,4,4,5,5,6,6,7,7,8,8,9,9,10,10,11,11,12,12,13,13,15,15,17,17,19,19,21,21,22,22,23,23,24,24,25,25,26,26,28,28,30,30,31,31,33,33,36,36,37,37,39,39,40,40,41,41,44,44,46,46,48,48],"right_children":[2,4,6,8,10,12,14,16,18,20,22,24,26,28,-1,30,-1,32,-1,34,-1,36,38,40,42,44,46,-1,48,-1,50,52,-1,54,-1,-1,56,58,-1,60,62,64,-1,-1,66,-1,68,-1,70,-1,-1,-1,-1,-1,-1,-1,-1,-1,-1,-1,-1,-1,-1,-1,-1,-1,-1,-1,-1,-1,-1],"split_conditions":[6.157E0,6.201E-1,6.898E0,5.6E0,1.17E2,2.1E1,1E1,4E0,6.7E5,6.8E1,3.1E1,1.2E2,1.015E6,1.103E3,-0E0,1E0,-0E0,1.315776E3,-0E0,6.125E0,-0E0,1.2857143E0,1.6E6,9.502E-1,7.087E3,6.3E1,9.6E1,-0E0,6.3E1,-0E0,2.8E1,6.932E3,-0E0,3.7E1,-0E0,-0E0,1.2E1,1E0,-0E0,3E0,3.981E3,1.9E1,-0E0,-0E0,1.3592E4,-0E0,3.099E3,-0E0,1.225E3,-1.1355995E-1,-0E0,1.04694515E-1,-0E0,-1.3742699E-1,-0E0,-8.1238635E-2,-0E0,-0E0,1.1156141E-2,2.339522E-2,-0E0,-0E0,-6.831649E-2,8.512493E-2,-0E0,1.1108134E-1,-0E0,-0E0,3.267532E-2,-0E0,1.2918383E-1],"split_indices":[4,3,4,4,0,16,4,17,5,16,16,0,6,1,0,17,0,8,0,4,0,11,5,3,15,15,0,0,0,0,18,15,0,18,0,0,18,19,0,12,15,16,0,0,1,0,1,0,1,0,0,0,0,0,0,0,0,0,0,0,0,0,0,0,0,0,0,0,0,0,0],"split_type":[0,0,0,0,0,0,0,0,0,0,0,0,0,0,0,0,0,0,0,0,0,0,0,0,0,0,0,0,0,0,0,0,0,0,0,0,0,0,0,0,0,0,0,0,0,0,0,0,0,0,0,0,0,0,0,0,0,0,0,0,0,0,0,0,0,0,0,0,0,0,0],"sum_hessian":[7.1319336E2,3.251963E2,3.8799707E2,6.973848E1,2.5545782E2,1.7542026E2,2.125768E2,5.262871E1,1.7109764E1,2.2033951E2,3.5118317E1,1.09234856E2,6.618541E1,2.1143106E2,1.1457427E0,3.5920925E1,1.670779E1,1.5788389E1,1.3213753E0,2.1351639E2,6.823109E0,2.9303915E1,5.8144026E0,8.260914E1,2.6625711E1,4.9451107E1,1.6734303E1,1.0207537E1,2.0122353E2,9.51748E0,2.6403444E1,1.4197765E1,1.590624E0,2.0975822E2,3.758164E0,8.011739E0,2.1292175E1,4.452311E0,1.3620917E0,2.977526E1,5.283388E1,2.0804726E1,5.8209867E0,1.2841089E0,4.8166996E1,4.6825953E0,1.2051708E1,2.0307012E0,1.9919283E2,2.5171457E1,1.2319853E0,1.20495615E1,2.1482034E0,2.0852725E2,1.2309723E0,1.8679665E1,2.6125116E0,1.9300898E0,2.522221E0,2.1799477E1,7.9757833E0,1.3142787E1,3.9691093E1,1.9206993E1,1.5977327E0,4.7092243E1,1.0747535E0,1.0232788E0,1.1028429E1,6.6211915E0,1.9257162E2],"tree_param":{"num_deleted":"0","num_feature":"21","num_nodes":"71","size_leaf_vector":"1"}},{"base_weights":[5.3984933E-3,-6.5385616E-1,4.8343816E-1,-7.822143E-1,-0E0,-0E0,6.6605055E-1,-0E0,-8.434766E-1,-2.7312005E-1,3.3044115E-1,4.6244484E-1,-1.590017E-1,7.5293183E-1,1.53597295E-2,-9.179015E-1,-1.873287E-1,-0E0,-3.9881414E-1,4.5608452E-1,-0E0,5.7067883E-1,-0E0,-0E0,-5.064739E-1,7.915798E-1,-0E0,-1.2816624E-1,4.4160625E-1,-9.288522E-1,-0E0,-0E0,-3.286426E-1,-4.4201583E-1,-0E0,5.815484E-1,-0E0,6.142046E-1,-0E0,-1.2539582E-1,1.4654715E-1,-6.5305144E-1,-0E0,7.972703E-1,-0E0,-0E0,5.3865522E-2,-3.7076858E-1,-0E0,-0E0,5.2488595E-1,-0E0,-1.3992333E-1,-0E0,-6.744008E-2,-7.1440965E-2,-0E0,-0E0,9.109522E-2,9.9629246E-2,-0E0,-0E0,-4.0526457E-2,3.6279805E-2,-0E0,-0E0,-1.0166169E-1,-0E0,1.2052726E-1,-3.9130993E-2,-0E0,-8.034044E-2,-0E0,-0E0,8.3051205E-2],"categories":[],"categories_nodes":[],"categories_segments":[],"categories_sizes":[],"default_left":[0,0,0,0,0,0,0,0,0,0,0,0,0,0,0,0,0,0,0,0,0,0,0,0,0,0,0,0,0,0,0,0,0,0,0,0,0,0,0,0,0,0,0,0,0,1,0,0,0,0,0,0,0,0,0,0,0,0,0,0,0,0,0,0,0,0,0,0,0,0,0,0,0,0,0],"id":15,"left_children":[1,3,5,7,9,11,13,-1,15,17,19,21,23,25,27,29,31,-1,33,35,-1,37,-1,39,41,43,45,47,49,51,-1,-1,53,55,-1,57,-1,59,-1,61,63,65,-1,67,-1,69,-1,71,-1,-1,73,-1,-1,-1,-1,-1,-1,-1,-1,-1,-1,-1,-1,-1,-1,-1,-1,-1,-1,-1,-1,-1,-1,-1,-1],"loss_changes":[2.1024875E2,2.299952E1,3.205928E1,9.911789E0,4.737217E0,1.0188177E1,1.0776772E1,0E0,2.5422668E0,1.7460811E0,1.9457045E0,2.121046E0,5.068507E0,2.8065338E0,5.0249543E0,1.0914764E0,1.2835411E0,0E0,6.5238523E-1,1.3901238E0,0E0,9.448967E-1,0E0,1.17057E0,2.9055204E0,1.1694031E0,1.864054E0,1.8375516E0,1.5080242E0,4.4360352E-1,0E0,0E0,1.0184431E0,4.668312E-1,0E0,1.7202091E-1,0E0,1.2696514E0,0E0,9.019251E-1,8.919916E-1,3.4746647E-1,0E0,6.379547E-1,0E0,5.9853584E-1,0E0,2.0383253E0,0E0,0E0,2.2042036E-1,0E0,0E0,0E0,0E0,0E0,0E0,0E0,0E0,0E0,0E0,0E0,0E0,0E0,0E0,0E0,0E0,0E0,0E0,0E0,0E0,0E0,0E0,0E0,0E0],"parents":[2147483647,0,0,1,1,2,2,3,3,4,4,5,5,6,6,8,8,9,9,10,10,11,11,12,12,13,13,14,14,15,15,16,16,18,18,19,19,21,21,23,23,24,24,25,25,26,26,27,27,28,28,29,29,32,32,33,33,35,35,37,37,39,39,40,40,41,41,43,43,45,45,47,47,50,50],"right_children":[2,4,6,8,10,12,14,-1,16,18,20,22,24,26,28,30,32,-1,34,36,-1,38,-1,40,42,44,46,48,50,52,-1,-1,54,56,-1,58,-1,60,-1,62,64,66,-1,68,-1,70,-1,72,-1,-1,74,-1,-1,-1,-1,-1,-1,-1,-1,-1,-1,-1,-1,-1,-1,-1,-1,-1,-1,-1,-1,-1,-1,-1,-1],"split_conditions":[6.024E0,8E0,6.565E0,3.005E-1,1.6E1,1E0,6.932E3,-0E0,1.12E2,2.678E-1,2.5218545E3,6.495E3,2.8254E5,3.4E7,7.2E0,8E1,2.397E3,-0E0,4.1E1,2.8E1,-0E0,1.63E2,-0E0,4E0,1.22E2,7E0,1.18E2,1.7777778E0,3.722E-1,2.3E0,-0E0,-0E0,1.5714285E0,1.65E2,-0E0,8E1,-0E0,2.424E0,-0E0,4.012E3,1.5284E0,8.5E1,-0E0,1E0,-0E0,7.2E0,5.3865522E-2,7.833E3,-0E0,-0E0,1.087E3,-0E0,-1.3992333E-1,-0E0,-6.744008E-2,-7.1440965E-2,-0E0,-0E0,9.109522E-2,9.9629246E-2,-0E0,-0E0,-4.0526457E-2,3.6279805E-2,-0E0,-0E0,-1.0166169E-1,-0E0,1.2052726E-1,-3.9130993E-2,-0E0,-8.034044E-2,-0E0,-0E0,8.3051205E-2],"split_indices":[4,18,4,3,16,17,15,0,0,3,8,15,6,5,4,16,1,0,18,19,0,0,0,17,0,10,0,11,3,4,0,0,11,0,0,0,0,3,0,15,3,0,0,16,0,4,0,15,0,0,1,0,0,0,0,0,0,0,0,0,0,0,0,0,0,0,0,0,0,0,0,0,0,0,0],"split_type":[0,0,0,0,0,0,0,0,0,0,0,0,0,0,0,0,0,0,0,0,0,0,0,0,0,0,0,0,0,0,0,0,0,0,0,0,0,0,0,0,0,0,0,0,0,0,0,0,0,0,0,0,0,0,0,0,0,0,0,0,0,0,0,0,0,0,0,0,0,0,0,0,0,0,0],"sum_hessian":[6.636358E2,2.7266174E2,3.9097403E2,2.2705011E2,4.561165E1,1.143934E2,2.765806E2,1.8343716E1,2.0870639E2,2.568461E1,1.992704E1,3.4237694E1,8.015571E1,2.3466086E2,4.191976E1,1.7724846E2,3.145794E1,4.525524E0,2.1159086E1,1.814559E1,1.7814507E0,2.7789316E1,6.448379E0,5.5662437E1,2.4493275E1,2.1645062E2,1.8210236E1,2.1736467E1,2.0183292E1,1.7427652E2,2.971932E0,1.1723812E1,1.9734127E1,1.991129E1,1.2477959E0,1.3919206E1,4.2263837E0,2.6014893E1,1.7744229E0,2.7030958E1,2.863148E1,2.0145462E1,4.347812E0,2.1516156E2,1.2890475E0,7.3830085E0,1.0827228E1,1.2872154E1,8.864313E0,1.448889E0,1.8734404E1,2.4187639E0,1.7185776E2,5.927179E0,1.3806949E1,1.8542547E1,1.3687419E0,1.1125841E0,1.2806622E1,2.4389854E1,1.625038E0,1.1759474E1,1.5271483E1,2.33196E1,5.311879E0,1.1183274E0,1.9027136E1,4.132993E0,2.1102858E2,5.2125053E0,2.1705031E0,1.1324812E1,1.5473425E0,1.7004418E0,1.703396E1],"tree_param":{"num_deleted":"0","num_feature":"21","num_nodes":"75","size_leaf_vector":"1"}},{"base_weights":[2.4230164E-3,-6.3778293E-1,4.288438E-1,-0E0,-7.692705E-1,9.623402E-2,7.320109E-1,-1.2151856E-1,9.011844E-2,-7.958061E-1,-0E0,-8.4995374E-2,4.2496902E-1,7.374256E-1,-0E0,-0E0,-3.8813072E-1,2.818693E-1,-0E0,-8.646886E-1,-5.8636602E-2,-2.8301728E-1,3.461242E-1,6.0277784E-1,-0E0,-0E0,7.779764E-1,-0E0,-5.0239784E-1,5.0855115E-2,-0E0,-0E0,-8.767306E-1,-0E0,-2.4228461E-1,-0E0,-4.5853725E-1,4.5887378E-1,-0E0,6.6467375E-1,-0E0,-8.116286E-2,-0E0,-0E0,1.9674832E-1,1.264246E-1,9.889018E-2,-8.3845414E-2,-0E0,-1.3273972E-1,-0E0,-4.4021677E-2,-0E0,1.4600312E-2,-0E0,-0E0,-8.001018E-2,7.5223796E-2,-0E0,-0E0,1.05722845E-1,-2.6109146E-2,-0E0,-0E0,6.0098427E-3,-0E0,4.4368356E-2,-0E0,5.325875E-2],"categories":[],"categories_nodes":[],"categories_segments":[],"categories_sizes":[],"default_left":[0,0,0,0,0,0,1,0,0,0,0,0,0,0,0,0,0,0,0,0,0,0,0,0,0,0,0,0,0,0,0,0,0,0,0,0,0,0,0,0,0,0,0,0,0,0,0,0,0,0,0,0,0,0,0,0,0,0,0,0,0,0,0,0,0,0,0,0,0],"id":16,"left_children":[1,3,5,7,9,11,13,15,17,19,-1,21,23,25,-1,-1,27,29,-1,31,33,35,37,39,41,43,45,-1,47,-1,-1,-1,49,-1,51,53,55,57,-1,59,-1,61,63,-1,65,-1,67,-1,-1,-1,-1,-1,-1,-1,-1,-1,-1,-1,-1,-1,-1,-1,-1,-1,-1,-1,-1,-1,-1],"loss_changes":[1.6976636E2,1.90029E1,3.289995E1,6.235618E-1,4.998497E0,1.4062114E1,8.9888E-1,2.7628603E0,7.493265E-1,3.6908493E0,0E0,9.910193E0,7.834359E0,1.2035904E0,0E0,0E0,1.3205914E0,2.6573718E-1,0E0,1.6618652E0,9.813844E-1,6.6313033E0,1.7019634E0,2.0957413E0,7.481202E-2,6.3194543E-1,1.4607162E0,0E0,7.842665E-1,0E0,0E0,0E0,1.0530243E0,0E0,4.2916203E-1,2.180553E-1,2.3076124E0,7.424674E-1,0E0,2.2118874E0,0E0,2.2508475E-1,2.3061743E-2,0E0,6.8343E-1,0E0,1.6391066E0,0E0,0E0,0E0,0E0,0E0,0E0,0E0,0E0,0E0,0E0,0E0,0E0,0E0,0E0,0E0,0E0,0E0,0E0,0E0,0E0,0E0,0E0],"parents":[2147483647,0,0,1,1,2,2,3,3,4,4,5,5,6,6,7,7,8,8,9,9,11,11,12,12,13,13,16,16,17,17,19,19,20,20,21,21,22,22,23,23,24,24,25,25,26,26,28,28,32,32,34,34,35,35,36,36,37,37,39,39,41,41,42,42,44,44,46,46],"right_children":[2,4,6,8,10,12,14,16,18,20,-1,22,24,26,-1,-1,28,30,-1,32,34,36,38,40,42,44,46,-1,48,-1,-1,-1,50,-1,52,54,56,58,-1,60,-1,62,64,-1,66,-1,68,-1,-1,-1,-1,-1,-1,-1,-1,-1,-1,-1,-1,-1,-1,-1,-1,-1,-1,-1,-1,-1,-1],"split_conditions":[6E0,4.934E-1,6.85E0,5E0,2.8E1,1.8E1,1E1,2.3E0,5E0,1.2E2,-0E0,1.22E2,1.076075E6,2E0,-0E0,-0E0,1E0,3.662E3,-0E0,2.3E0,8.606E-1,8E-1,7.46E3,1.49E2,1E2,7.003E0,1E1,-0E0,1.3E1,5.0855115E-2,-0E0,-0E0,8E1,-0E0,4.3E1,3E0,3.981E3,9.98004E-1,-0E0,1.56E2,-0E0,3.5714285E0,1.1E0,-0E0,3.722E-1,1.264246E-1,1.03E2,-8.3845414E-2,-0E0,-1.3273972E-1,-0E0,-4.4021677E-2,-0E0,1.4600312E-2,-0E0,-0E0,-8.001018E-2,7.5223796E-2,-0E0,-0E0,1.05722845E-1,-2.6109146E-2,-0E0,-0E0,6.0098427E-3,-0E0,4.4368356E-2,-0E0,5.325875E-2],"split_indices":[4,3,4,4,18,16,4,4,19,0,0,0,6,16,0,0,17,1,0,4,3,3,15,0,0,4,17,0,17,0,0,0,16,0,16,12,15,7,0,15,0,9,11,0,3,0,0,0,0,0,0,0,0,0,0,0,0,0,0,0,0,0,0,0,0,0,0,0,0],"split_type":[0,0,0,0,0,0,0,0,0,0,0,0,0,0,0,0,0,0,0,0,0,0,0,0,0,0,0,0,0,0,0,0,0,0,0,0,0,0,0,0,0,0,0,0,0,0,0,0,0,0,0,0,0,0,0,0,0,0,0,0,0,0,0,0,0,0,0,0,0],"sum_hessian":[6.19829E2,2.4097987E2,3.788491E2,4.4324997E1,1.9665488E2,1.9312961E2,1.857195E2,2.7568535E1,1.6756462E1,1.9142126E2,5.233605E0,1.13369316E2,7.9760284E1,1.8460374E2,1.1157635E0,9.693615E0,1.787492E1,7.9913645E0,8.765097E0,1.6640611E2,2.501515E1,8.88925E1,2.4476816E1,5.9440567E1,2.0319721E1,1.7110783E1,1.6749295E2,3.39014E0,1.4484779E1,6.668804E0,1.3225605E0,2.4736006E0,1.6393251E2,1.0137993E1,1.4877158E1,2.5663078E1,6.3229424E1,2.049527E1,3.9815457E0,5.300566E1,6.4349046E0,7.8449874E0,1.2474733E1,4.2974496E0,1.2813333E1,1.4267233E2,2.4820627E1,1.3399644E1,1.0851357E0,1.6085857E2,3.0739505E0,1.3863506E1,1.013651E0,1.9319235E1,6.3438435E0,9.770016E0,5.3459408E1,1.9355532E1,1.1397383E0,2.24138E0,5.0764282E1,6.307241E0,1.5377465E0,1.7354188E0,1.0739315E1,1.4114118E0,1.1401921E1,1.3254669E1,1.1565957E1],"tree_param":{"num_deleted":"0","num_feature":"21","num_nodes":"69","size_leaf_vector":"1"}},{"base_weights":[3.8231467E-3,-4.2177394E-1,5.5211157E-1,-6.2075984E-1,-0E0,2.929801E-1,8.1523645E-1,-0E0,-7.193046E-1,1.3747424E-1,-4.728327E-1,1.0474868E-2,6.826152E-1,-0E0,8.5601526E-1,-1.18182756E-1,1.6688155E-1,-7.5094783E-1,-0E0,-0E0,4.1621685E-1,-7.6792374E-2,-0E0,2.128416E-1,-3.6216807E-1,7.4981207E-1,-0E0,1.2991804E-1,-0E0,-0E0,-3.942808E-2,2.7443737E-1,-0E0,-7.8881234E-1,-0E0,2.663709E-2,-2.3094743E-1,5.800117E-1,-0E0,-0E0,5.786135E-1,-7.2681177E-1,-0E0,7.715763E-1,-0E0,4.9679372E-2,-0E0,-1.2179832E-1,-0E0,3.0213172E-2,-0E0,-0E0,-5.248489E-2,9.6329235E-2,-0E0,2.4020502E-2,-1.0673446E-1,1.0627475E-1,-0E0,-1.402857E-1,-0E0,1.1880519E-1,-0E0],"categories":[],"categories_nodes":[],"categories_segments":[],"categories_sizes":[],"default_left":[0,0,0,0,0,0,0,0,0,0,0,0,0,0,0,0,0,0,0,0,0,0,0,0,1,0,0,0,0,0,0,0,0,0,0,0,0,0,0,0,0,0,0,0,0,0,0,0,0,0,0,0,0,0,0,0,0,0,0,0,0,0,0],"id":17,"left_children":[1,3,5,7,9,11,13,15,17,19,21,23,25,-1,27,29,31,33,-1,35,37,-1,-1,39,41,43,-1,-1,-1,-1,-1,45,-1,47,-1,49,51,53,-1,55,57,59,-1,61,-1,-1,-1,-1,-1,-1,-1,-1,-1,-1,-1,-1,-1,-1,-1,-1,-1,-1,-1],"loss_changes":[1.3819359E2,2.665831E1,9.91848E0,1.3345154E1,7.640169E0,1.2064249E1,2.9216156E0,7.2878915E-1,5.9308167E0,5.3302526E0,4.9089622E-1,6.895825E0,2.2467613E0,0E0,1.363678E0,8.2488286E-1,6.1736864E-1,5.231636E0,0E0,1.328047E0,3.8092446E0,0E0,0E0,6.6151094E0,6.2077055E0,4.4985962E-1,0E0,0E0,0E0,0E0,0E0,3.5391998E-1,0E0,5.1241074E0,0E0,6.583333E-1,5.8742344E-1,2.1048431E0,0E0,6.8257694E0,2.2424793E0,3.7416325E0,0E0,3.6283302E-1,0E0,0E0,0E0,0E0,0E0,0E0,0E0,0E0,0E0,0E0,0E0,0E0,0E0,0E0,0E0,0E0,0E0,0E0,0E0],"parents":[2147483647,0,0,1,1,2,2,3,3,4,4,5,5,6,6,7,7,8,8,9,9,10,10,11,11,12,12,14,14,15,15,16,16,17,17,19,19,20,20,23,23,24,24,25,25,31,31,33,33,35,35,36,36,37,37,39,39,40,40,41,41,43,43],"right_children":[2,4,6,8,10,12,14,16,18,20,22,24,26,-1,28,30,32,34,-1,36,38,-1,-1,40,42,44,-1,-1,-1,-1,-1,46,-1,48,-1,50,52,54,-1,56,58,60,-1,62,-1,-1,-1,-1,-1,-1,-1,-1,-1,-1,-1,-1,-1,-1,-1,-1,-1,-1,-1],"split_conditions":[6.467E0,1.06E2,2E1,4.284E-1,1.7E6,1.2E2,6.53E0,5.125E0,2.8E1,1.6E1,4E0,7E0,7.616E3,-0E0,6.001428E0,1.371534E2,4E0,6.4E1,-0E0,1.6666666E0,1.376E0,-7.6792374E-2,-0E0,4E0,7.21E0,7.6666665E0,-0E0,1.2991804E-1,-0E0,-0E0,-3.942808E-2,7.68E2,-0E0,1.5E1,-0E0,7.444E-1,5.314E3,6.153E3,-0E0,2E0,5E0,2E0,-0E0,1.0135553E0,-0E0,4.9679372E-2,-0E0,-1.2179832E-1,-0E0,3.0213172E-2,-0E0,-0E0,-5.248489E-2,9.6329235E-2,-0E0,2.4020502E-2,-1.0673446E-1,1.0627475E-1,-0E0,-1.402857E-1,-0E0,1.1880519E-1,-0E0],"split_indices":[4,0,16,3,5,0,4,4,18,16,14,17,15,0,7,8,12,16,0,9,3,0,0,17,4,11,0,0,0,0,0,5,0,11,0,3,15,15,0,17,17,14,0,7,0,0,0,0,0,0,0,0,0,0,0,0,0,0,0,0,0,0,0],"split_type":[0,0,0,0,0,0,0,0,0,0,0,0,0,0,0,0,0,0,0,0,0,0,0,0,0,0,0,0,0,0,0,0,0,0,0,0,0,0,0,0,0,0,0,0,0,0,0,0,0,0,0,0,0,0,0,0,0,0,0,0,0,0,0],"sum_hessian":[5.8155225E2,3.211595E2,2.603928E2,2.1555322E2,1.0560627E2,1.4743501E2,1.1295777E2,3.0119448E1,1.8543378E2,8.2189316E1,2.3416954E1,9.727299E1,5.0162033E1,6.84531E0,1.0611246E2,1.8503702E1,1.1615745E1,1.8036288E2,5.0708933E0,4.558296E1,3.6606354E1,2.1132729E1,2.284225E0,7.5371605E1,2.1901379E1,4.4969048E1,5.192987E0,1.045135E2,1.5989655E0,5.757656E0,1.2746046E1,1.0278935E1,1.3368099E0,1.7154182E2,8.821045E0,2.4569044E1,2.1013914E1,2.8470167E1,8.136188E0,4.8450798E1,2.6920809E1,1.45496E1,7.3517776E0,4.302822E1,1.9408276E0,9.081857E0,1.1970782E0,1.6807524E2,3.4665976E0,1.307204E1,1.1497004E1,9.167213E0,1.1846701E1,2.742988E1,1.0402869E0,4.0835793E1,7.615007E0,2.1054163E1,5.866645E0,1.1552257E1,2.9973438E0,4.0874374E1,2.153845E0],"tree_param":{"num_deleted":"0","num_feature":"21","num_nodes":"63","size_leaf_vector":"1"}},{"base_weights":[5.203692E-3,-5.9692097E-1,3.61734E-1,-0E0,-7.395676E-1,8.7656766E-2,6.778546E-1,1.8796083E-2,-1.2799601E-1,-0E0,-7.601932E-1,2.4990138E-1,-2.664736E-1,-0E0,7.2389424E-1,-0E0,1.7445672E-1,-2.9407224E-1,-0E0,-7.779921E-1,-0E0,4.886401E-1,-0E0,-4.527078E-1,-0E0,9.565382E-2,-0E0,7.434494E-1,-0E0,2.3810476E-1,-0E0,-0E0,-5.4385554E-2,-0E0,-8.03915E-1,5.9019727E-1,-0E0,1.2866244E-1,-1.4511096E-1,-4.9536905E-1,-0E0,-0E0,6.700081E-2,-0E0,1.19113885E-1,-0E0,7.9188395E-1,-0E0,4.4897895E-2,-1.2076175E-1,-0E0,9.679544E-2,-0E0,-0E0,7.439971E-2,-6.2179543E-2,-0E0,-0E0,-7.827884E-2,1.1012069E-2,-0E0,-0E0,2.063099E-2,-0E0,5.3854007E-3,1.1918196E-1,-0E0],"categories":[],"categories_nodes":[],"categories_segments":[],"categories_sizes":[],"default_left":[0,0,0,0,0,0,0,0,0,0,0,0,0,0,0,0,0,0,0,0,0,0,0,0,0,0,0,0,0,0,0,0,0,0,0,0,0,0,1,0,0,0,0,0,0,1,0,0,0,0,0,0,0,0,0,0,0,0,0,0,0,0,0,0,0,0,0],"id":18,"left_children":[1,3,5,7,9,11,13,15,17,-1,19,21,23,25,27,-1,29,31,-1,33,-1,35,37,39,41,43,-1,45,-1,47,-1,-1,-1,-1,49,51,-1,53,55,57,-1,-1,59,-1,61,63,65,-1,-1,-1,-1,-1,-1,-1,-1,-1,-1,-1,-1,-1,-1,-1,-1,-1,-1,-1,-1],"loss_changes":[1.17915436E2,1.5574509E1,2.5659992E1,3.3283454E-1,3.3020706E0,1.1956985E1,2.2837296E0,3.783891E-1,9.889543E-1,0E0,2.8553543E0,8.028221E0,3.7048793E0,1.2859555E-1,1.5143967E0,0E0,2.7176324E-1,4.5815432E-1,0E0,2.7615204E0,0E0,4.8348026E0,1.6073251E0,7.788143E-1,4.856656E-2,5.472423E-2,0E0,2.6596146E0,0E0,2.9865426E-1,0E0,0E0,0E0,0E0,8.646393E-2,2.6154995E0,0E0,3.2493777E0,2.345514E0,6.255026E-1,0E0,0E0,3.4849085E-3,0E0,1.5233174E-2,1.4048266E-2,4.9781036E-1,0E0,0E0,0E0,0E0,0E0,0E0,0E0,0E0,0E0,0E0,0E0,0E0,0E0,0E0,0E0,0E0,0E0,0E0,0E0,0E0],"parents":[2147483647,0,0,1,1,2,2,3,3,4,4,5,5,6,6,7,7,8,8,10,10,11,11,12,12,13,13,14,14,16,16,17,17,19,19,21,21,22,22,23,23,24,24,25,25,27,27,29,29,34,34,35,35,37,37,38,38,39,39,42,42,44,44,45,45,46,46],"right_children":[2,4,6,8,10,12,14,16,18,-1,20,22,24,26,28,-1,30,32,-1,34,-1,36,38,40,42,44,-1,46,-1,48,-1,-1,-1,-1,50,52,-1,54,56,58,-1,-1,60,-1,62,64,66,-1,-1,-1,-1,-1,-1,-1,-1,-1,-1,-1,-1,-1,-1,-1,-1,-1,-1,-1,-1],"split_conditions":[5.9E0,4.934E-1,6.898E0,5E0,2.3E0,1.8968E0,1.225E3,1E0,2.1E1,-0E0,4.8E1,3.981E3,2E1,1.1963665E3,1E1,-0E0,1E0,1.083E3,-0E0,3.42E2,-0E0,2.05E6,5E0,1.28E2,1.05E2,1.007E3,-0E0,2E0,-0E0,9E1,-0E0,-0E0,-5.4385554E-2,-0E0,3.4E1,1.6E2,-0E0,2E0,1.651E3,2.675E3,-0E0,-0E0,7.4611695E4,-0E0,8.8E1,3.662E3,7.864E3,-0E0,4.4897895E-2,-1.2076175E-1,-0E0,9.679544E-2,-0E0,-0E0,7.439971E-2,-6.2179543E-2,-0E0,-0E0,-7.827884E-2,1.1012069E-2,-0E0,-0E0,2.063099E-2,-0E0,5.3854007E-3,1.1918196E-1,-0E0],"split_indices":[4,3,4,19,4,3,1,19,18,0,19,15,16,8,4,0,20,1,0,15,0,5,19,0,0,1,0,16,0,0,0,0,0,0,18,0,0,18,1,15,0,0,8,0,0,1,15,0,0,0,0,0,0,0,0,0,0,0,0,0,0,0,0,0,0,0,0],"split_type":[0,0,0,0,0,0,0,0,0,0,0,0,0,0,0,0,0,0,0,0,0,0,0,0,0,0,0,0,0,0,0,0,0,0,0,0,0,0,0,0,0,0,0,0,0,0,0,0,0,0,0,0,0,0,0,0,0,0,0,0,0,0,0,0,0,0,0],"sum_hessian":[5.493823E2,1.9662665E2,3.5275568E2,4.1284554E1,1.553421E2,2.0240916E2,1.5034651E2,2.5097456E1,1.6187098E1,2.78917E0,1.5255293E2,1.521673E2,5.0241875E1,1.459034E1,1.3575616E2,1.584455E1,9.252905E0,1.1655891E1,4.5312057E0,1.5021121E2,2.3417268E0,7.082982E1,8.133747E1,3.318999E1,1.7051884E1,1.0542863E1,4.0474772E0,1.3126602E2,4.4901476E0,8.134222E0,1.1186826E0,1.81254E0,9.843351E0,5.48105E0,1.4473016E2,6.132644E1,9.503382E0,5.274011E1,2.859736E1,3.0314445E1,2.875547E0,9.744955E0,7.3069277E0,1.1340355E0,9.408827E0,1.1741556E1,1.1952447E2,1.0288136E0,7.1054087E0,1.4324838E2,1.4817784E0,5.652093E1,4.8055105E0,3.9395054E1,1.3345053E1,1.3931605E1,1.4665756E1,1.3131202E0,2.9001326E1,6.068468E0,1.2384598E0,2.5089934E0,6.8998337E0,4.442267E0,7.2992887E0,1.1850293E2,1.0215389E0],"tree_param":{"num_deleted":"0","num_feature":"21","num_nodes":"67","size_leaf_vector":"1"}},{"base_weights":[5.0317487E-3,-5.0631654E-1,3.5853082E-1,-0E0,-7.3115855E-1,9.40594E-2,6.4062023E-1,-1.9421946E-1,1.4560762E-1,-7.643632E-1,-0E0,-3.839092E-2,3.0932945E-1,2.1980274E-2,7.2322994E-1,3.3101093E-2,-4.5842597E-1,3.5052088E-1,-0E0,-7.826962E-1,-0E0,-0E0,-5.303692E-1,4.250636E-1,-0E0,-0E0,2.5761637E-1,7.446351E-1,-0E0,1.3849472E-1,-0E0,-5.890027E-1,-0E0,-0E0,1.0320537E-1,-7.961055E-1,-0E0,2.5281614E-1,-2.8556077E-2,-8.923067E-2,-0E0,5.050751E-1,-0E0,-0E0,-3.5224784E-2,5.694521E-2,-0E0,7.603957E-1,-0E0,2.6472462E-2,-0E0,-9.789304E-2,-0E0,-0E0,-1.2061514E-1,5.9141364E-2,-0E0,-2.2990784E-2,-0E0,-0E0,8.299768E-2,-0E0,-1.2582231E-2,1.1435243E-1,-0E0],"categories":[],"categories_nodes":[],"categories_segments":[],"categories_sizes":[],"default_left":[0,0,0,0,0,0,0,0,0,0,0,0,0,0,0,0,0,0,0,0,0,0,0,0,0,0,0,0,0,0,0,0,0,0,0,0,0,0,0,0,0,0,0,0,0,0,0,0,0,0,0,0,0,0,0,0,0,0,0,0,0,0,0,0,0],"id":19,"left_children":[1,3,5,7,9,11,13,15,17,19,-1,21,23,25,27,29,31,33,-1,35,-1,37,39,41,43,-1,45,47,-1,49,-1,51,-1,-1,-1,53,-1,55,57,-1,-1,59,-1,-1,61,-1,-1,63,-1,-1,-1,-1,-1,-1,-1,-1,-1,-1,-1,-1,-1,-1,-1,-1,-1],"loss_changes":[9.414098E1,1.9418503E1,1.8760403E1,2.5054312E0,3.204033E0,6.9575586E0,2.315281E0,5.8727756E0,1.810839E0,1.7693405E0,0E0,5.1834617E0,5.4718275E0,1.5005718E0,1.2788773E0,2.8545696E-1,3.5413475E0,2.2148848E0,0E0,1.0441208E0,0E0,2.032106E0,8.9269924E-1,3.7298203E0,1.4898925E-2,0E0,1.3728491E0,6.37146E-1,0E0,1.5120786E-1,0E0,1.7085342E0,0E0,0E0,0E0,7.4575806E-1,0E0,1.8676815E0,1.0265952E0,0E0,0E0,2.9425907E0,0E0,0E0,5.499419E-2,0E0,0E0,1.0190201E-1,0E0,0E0,0E0,0E0,0E0,0E0,0E0,0E0,0E0,0E0,0E0,0E0,0E0,0E0,0E0,0E0,0E0],"parents":[2147483647,0,0,1,1,2,2,3,3,4,4,5,5,6,6,7,7,8,8,9,9,11,11,12,12,13,13,14,14,15,15,16,16,17,17,19,19,21,21,22,22,23,23,24,24,26,26,27,27,29,29,31,31,35,35,37,37,38,38,41,41,44,44,47,47],"right_children":[2,4,6,8,10,12,14,16,18,20,-1,22,24,26,28,30,32,34,-1,36,-1,38,40,42,44,-1,46,48,-1,50,-1,52,-1,-1,-1,54,-1,56,58,-1,-1,60,-1,-1,62,-1,-1,64,-1,-1,-1,-1,-1,-1,-1,-1,-1,-1,-1,-1,-1,-1,-1,-1,-1],"split_conditions":[6.024E0,7.444E-1,6.898E0,4E0,1.58E2,1.92E0,1.719E3,1E0,2E0,8E1,-0E0,2E6,3.4816824E7,1E0,7.74E3,2.5E1,2.1E1,1E0,-0E0,2.8E1,-0E0,1E0,2.9E1,7.025E3,2.2222223E0,-0E0,4.700002E6,2.380674E0,-0E0,8.088E3,-0E0,5.88E0,-0E0,-0E0,1.0320537E-1,3.1E0,-0E0,6.652E3,1.24E2,-8.923067E-2,-0E0,1.87E2,-0E0,-0E0,2.147E3,5.694521E-2,-0E0,4E0,-0E0,2.6472462E-2,-0E0,-9.789304E-2,-0E0,-0E0,-1.2061514E-1,5.9141364E-2,-0E0,-2.2990784E-2,-0E0,-0E0,8.299768E-2,-0E0,-1.2582231E-2,1.1435243E-1,-0E0],"split_indices":[4,3,4,17,0,11,1,17,19,16,0,5,6,19,15,5,18,18,0,18,0,17,16,15,11,0,5,7,0,1,0,4,0,0,0,4,0,15,0,0,0,15,0,0,15,0,0,10,0,0,0,0,0,0,0,0,0,0,0,0,0,0,0,0,0],"split_type":[0,0,0,0,0,0,0,0,0,0,0,0,0,0,0,0,0,0,0,0,0,0,0,0,0,0,0,0,0,0,0,0,0,0,0,0,0,0,0,0,0,0,0,0,0,0,0,0,0,0,0,0,0,0,0,0,0,0,0,0,0,0,0,0,0],"sum_hessian":[5.1910345E2,2.0400803E2,3.1509543E2,7.1682724E1,1.323253E2,1.7699068E2,1.3810475E2,4.7138954E1,2.454377E1,1.2626385E2,6.061449E0,9.257969E1,8.441099E1,2.6105135E1,1.1199962E2,1.3704035E1,3.3434917E1,1.6067907E1,8.4758625E0,1.231438E2,3.1200528E0,7.716067E1,1.5419021E1,7.3335464E1,1.10755205E1,6.790873E0,1.931426E1,1.0776057E2,4.2390547E0,1.23540535E1,1.3499815E0,2.9077045E1,4.3578715E0,9.897567E0,6.1703405E0,1.2056049E2,2.5833035E0,2.7604506E1,4.9556164E1,1.391793E1,1.5010909E0,6.553739E1,7.7980757E0,2.5796936E0,8.495827E0,1.6364037E1,2.9502237E0,1.0429765E2,3.4629157E0,1.099626E1,1.3577933E0,2.6799463E1,2.277582E0,2.2868009E0,1.1827369E2,2.1097284E1,6.5072207E0,4.1664097E1,7.8920693E0,2.4431298E0,6.309426E1,2.1538754E0,6.341952E0,1.03059105E2,1.2385476E0],"tree_param":{"num_deleted":"0","num_feature":"21","num_nodes":"65","size_leaf_vector":"1"}},{"base_weights":[3.1062008E-3,-5.4666394E-1,2.8385383E-1,-0E0,-6.303308E-1,5.092744E-2,6.010543E-1,-0E0,1.1140961E-1,-7.2464967E-1,-0E0,2.1752769E-1,-2.4834624E-1,9.049514E-2,7.2439104E-1,3.7718702E-2,-0E0,-7.4161696E-1,-0E0,-0E0,-1.6746655E-2,3.1774566E-1,-1.08270355E-1,-4.5250577E-1,-0E0,-0E0,2.7505103E-1,7.5112635E-1,-0E0,-0E0,-8.157372E-1,-0E0,3.140643E-2,-0E0,-1.4826213E-1,3.8519433E-1,-0E0,-3.4433526E-1,-0E0,-5.0290734E-1,-0E0,-0E0,1.7376265E-1,-0E0,-1.0565104E-2,4.2493826E-1,-0E0,-0E0,7.577225E-1,-1.2245578E-2,-0E0,-1.2351786E-1,-0E0,1.2075609E-2,-0E0,-0E0,-3.0724788E-2,6.679323E-2,-0E0,-6.625197E-2,-0E0,-0E0,-7.881702E-2,-2.7051196E-3,-0E0,-0E0,3.101618E-2,-1.0478343E-2,-0E0,6.801035E-2,-0E0,1.1412703E-1,-0E0],"categories":[],"categories_nodes":[],"categories_segments":[],"categories_sizes":[],"default_left":[0,0,0,0,0,0,1,0,0,0,0,0,0,0,0,0,0,0,0,0,0,0,1,0,0,0,0,0,0,0,0,0,0,0,0,0,0,0,0,0,0,0,0,0,0,0,0,0,0,0,0,0,0,0,0,0,0,0,0,0,0,0,0,0,0,0,0,0,0,0,0,0,0],"id":20,"left_children":[1,3,5,7,9,11,13,-1,15,17,19,21,23,25,27,-1,-1,29,-1,31,33,35,37,39,41,43,45,47,-1,49,51,-1,53,-1,55,57,-1,59,-1,61,-1,63,65,-1,67,69,-1,-1,71,-1,-1,-1,-1,-1,-1,-1,-1,-1,-1,-1,-1,-1,-1,-1,-1,-1,-1,-1,-1,-1,-1,-1,-1],"loss_changes":[7.5197495E1,1.0963066E1,2.0586021E1,1.6974686E-1,7.5462418E0,1.0480091E1,2.684433E0,0E0,5.406573E-1,2.3298569E0,4.5253127E-3,6.4211E0,4.6025534E0,1.836955E0,1.3827934E0,0E0,0E0,2.0614166E0,0E0,9.301485E-3,3.166175E-1,3.73007E0,1.4689335E0,1.0368185E0,3.863941E-1,9.109777E-4,2.01406E0,2.4827957E-1,0E0,1.3192967E-1,6.4188385E-1,0E0,4.1929893E-2,0E0,2.5239122E-1,2.301611E0,0E0,6.8677354E-1,0E0,5.4714966E-1,0E0,3.5236022E-3,1.1953226E-1,0E0,3.340714E-2,1.828208E-1,0E0,0E0,1.4404678E-1,0E0,0E0,0E0,0E0,0E0,0E0,0E0,0E0,0E0,0E0,0E0,0E0,0E0,0E0,0E0,0E0,0E0,0E0,0E0,0E0,0E0,0E0,0E0,0E0],"parents":[2147483647,0,0,1,1,2,2,3,3,4,4,5,5,6,6,8,8,9,9,10,10,11,11,12,12,13,13,14,14,17,17,19,19,20,20,21,21,22,22,23,23,24,24,25,25,26,26,27,27,29,29,30,30,32,32,34,34,35,35,37,37,39,39,41,41,42,42,44,44,45,45,48,48],"right_children":[2,4,6,8,10,12,14,-1,16,18,20,22,24,26,28,-1,-1,30,-1,32,34,36,38,40,42,44,46,48,-1,50,52,-1,54,-1,56,58,-1,60,-1,62,-1,64,66,-1,68,70,-1,-1,72,-1,-1,-1,-1,-1,-1,-1,-1,-1,-1,-1,-1,-1,-1,-1,-1,-1,-1,-1,-1,-1,-1,-1,-1],"split_conditions":[5.8E0,2.3E0,6.898E0,7.4E1,1.23E2,1.709E0,1.719E3,-0E0,8.138812E2,4.1E1,6.877E-1,1.6E6,2E1,1E0,7.74E3,3.7718702E-2,-0E0,1E0,-0E0,4.691E0,9.02E2,8E0,4.655E3,1.28E2,1.05E2,5.564E3,2.36519E6,2.224E-1,-0E0,1.14E2,8.3E1,-0E0,1.51E2,-0E0,1.25E2,6.932E3,-0E0,4E0,-0E0,2.675E3,-0E0,6.53E0,6.056E0,-0E0,7.367E3,2.1449954E3,-0E0,-0E0,4E0,-1.2245578E-2,-0E0,-1.2351786E-1,-0E0,1.2075609E-2,-0E0,-0E0,-3.0724788E-2,6.679323E-2,-0E0,-6.625197E-2,-0E0,-0E0,-7.881702E-2,-2.7051196E-3,-0E0,-0E0,3.101618E-2,-1.0478343E-2,-0E0,6.801035E-2,-0E0,1.1412703E-1,-0E0],"split_indices":[4,4,4,0,0,3,1,0,8,18,3,5,16,19,15,0,0,17,0,4,15,17,1,0,0,15,6,3,0,0,16,0,0,0,0,15,0,12,0,15,0,4,4,0,15,8,0,0,10,0,0,0,0,0,0,0,0,0,0,0,0,0,0,0,0,0,0,0,0,0,0,0,0],"split_type":[0,0,0,0,0,0,0,0,0,0,0,0,0,0,0,0,0,0,0,0,0,0,0,0,0,0,0,0,0,0,0,0,0,0,0,0,0,0,0,0,0,0,0,0,0,0,0,0,0,0,0,0,0,0,0,0,0,0,0,0,0,0,0,0,0,0,0,0,0,0,0,0,0],"sum_hessian":[4.9127533E2,1.5708322E2,3.3419208E2,1.2210939E1,1.4487228E2,2.0691376E2,1.27278336E2,2.0468538E0,1.0164085E1,1.2312995E2,2.174234E1,1.4755287E2,5.9360886E1,3.6250668E1,9.1027664E1,7.6330624E0,2.5310235E0,1.2163755E2,1.4923997E0,9.118297E0,1.26240425E1,1.2823657E2,1.9316303E1,3.790359E1,2.1457294E1,1.1176942E1,2.5073725E1,8.686836E1,4.159301E0,1.861175E1,1.030258E2,3.200051E0,5.9182453E0,1.5262935E0,1.109775E1,1.1127658E2,1.6959993E1,1.1134228E1,8.182076E0,3.4117687E1,3.7859013E0,1.2171844E1,9.285451E0,6.527455E0,4.6494875E0,1.9618181E1,5.4555426E0,1.1342802E0,8.5734085E1,1.6124836E1,2.4869132E0,1.0113893E2,1.8868663E0,4.3297195E0,1.5885254E0,1.0494043E0,1.0048346E1,9.321011E1,1.8066467E1,8.810565E0,2.3236625E0,1.4697831E0,3.2647903E1,7.235431E0,4.936412E0,1.0592685E0,8.226183E0,3.464422E0,1.1850654E0,1.752436E1,2.0938218E0,8.4539246E1,1.1948404E0],"tree_param":{"num_deleted":"0","num_feature":"21","num_nodes":"73","size_leaf_vector":"1"}},{"base_weights":[-0E0,-3.0294135E-1,4.1465575E-1,1.21921904E-1,-4.5491588E-1,8.204422E-2,6.291182E-1,-0E0,3.567222E-1,-5.70572E-1,1.2040705E-2,-0E0,4.2239127E-1,6.5489906E-1,-0E0,-0E0,-2.0723937E-1,5.7325023E-1,-0E0,-6.276317E-1,-0E0,2.914776E-1,-0E0,9.8690026E-2,-1.4579798E-1,-0E0,4.8556298E-1,6.845392E-1,-0E0,-2.136792E-1,-0E0,6.4905936E-1,-0E0,-6.7135614E-1,-0E0,4.3696558E-1,-0E0,-3.983613E-2,-0E0,3.3553556E-1,-0E0,-0E0,-5.023891E-1,7.8814484E-2,-0E0,-0E0,7.1245944E-1,-0E0,-3.51782E-2,1.0711805E-1,-0E0,-1.0534759E-1,-0E0,-0E0,7.752957E-2,-1.894149E-2,-0E0,5.599097E-2,-0E0,5.4704216E-3,-0E0,-1.114579E-1,-0E0,1.07820615E-1,-0E0],"categories":[],"categories_nodes":[],"categories_segments":[],"categories_sizes":[],"default_left":[0,0,0,0,0,1,0,0,0,0,0,0,0,0,0,0,0,0,0,0,0,0,0,0,1,0,0,0,0,0,0,0,0,0,0,0,0,0,0,0,0,0,1,0,0,0,0,0,0,0,0,0,0,0,0,0,0,0,0,0,0,0,0,0,0],"id":21,"left_children":[1,3,5,7,9,11,13,15,17,19,21,23,25,27,-1,-1,29,31,-1,33,-1,35,37,39,41,-1,43,45,-1,47,-1,49,-1,51,-1,53,-1,55,-1,57,-1,59,61,-1,-1,-1,63,-1,-1,-1,-1,-1,-1,-1,-1,-1,-1,-1,-1,-1,-1,-1,-1,-1,-1],"loss_changes":[6.0431236E1,1.9515993E1,1.0134998E1,4.0399895E0,1.488623E1,4.6233335E0,2.927105E0,8.3097154E-1,3.5533552E0,7.137661E0,1.6375134E0,1.2975794E0,1.3616643E0,2.672451E0,0E0,0E0,6.52653E-3,1.7601147E0,0E0,6.4839478E0,0E0,1.7278911E0,2.3166943E-2,1.861809E0,4.3542666E0,0E0,7.7788115E-1,9.9009705E-1,0E0,2.557671E-2,0E0,1.3767338E0,0E0,3.8820114E0,0E0,8.703046E-1,0E0,1.9435146E-1,0E0,2.6230884E-1,0E0,2.776769E-2,2.943325E0,0E0,0E0,0E0,3.5030365E-1,0E0,0E0,0E0,0E0,0E0,0E0,0E0,0E0,0E0,0E0,0E0,0E0,0E0,0E0,0E0,0E0,0E0,0E0],"parents":[2147483647,0,0,1,1,2,2,3,3,4,4,5,5,6,6,7,7,8,8,9,9,10,10,11,11,12,12,13,13,16,16,17,17,19,19,21,21,22,22,23,23,24,24,26,26,27,27,29,29,31,31,33,33,35,35,37,37,39,39,41,41,42,42,46,46],"right_children":[2,4,6,8,10,12,14,16,18,20,22,24,26,28,-1,-1,30,32,-1,34,-1,36,38,40,42,-1,44,46,-1,48,-1,50,-1,52,-1,54,-1,56,-1,58,-1,60,62,-1,-1,-1,64,-1,-1,-1,-1,-1,-1,-1,-1,-1,-1,-1,-1,-1,-1,-1,-1,-1,-1],"split_conditions":[6.467E0,1E0,1.7777778E0,5.588E0,1.28E2,7.21E0,7.833E3,4.578E-1,4.91E3,2.1E1,8.606E-1,3.981E3,2.224E-1,2.857143E0,-0E0,-0E0,6E1,2.1832E0,-0E0,1.45E1,-0E0,1.1E6,2.1E1,2.13084E5,1.288E0,-0E0,1.4E1,6.53E0,-0E0,8.5648E2,-0E0,3.4E6,-0E0,6.4E1,-0E0,1E0,-0E0,5E0,-0E0,7.1E0,-0E0,5E0,1.2207E4,7.8814484E-2,-0E0,-0E0,2.2726984E5,-0E0,-3.51782E-2,1.0711805E-1,-0E0,-1.0534759E-1,-0E0,-0E0,7.752957E-2,-1.894149E-2,-0E0,5.599097E-2,-0E0,5.4704216E-3,-0E0,-1.114579E-1,-0E0,1.07820615E-1,-0E0],"split_indices":[4,17,11,4,0,4,15,3,15,18,3,15,3,7,0,0,20,3,0,11,0,5,16,5,3,0,17,4,0,8,0,5,0,16,0,19,0,14,0,4,0,17,1,0,0,0,8,0,0,0,0,0,0,0,0,0,0,0,0,0,0,0,0,0,0],"split_type":[0,0,0,0,0,0,0,0,0,0,0,0,0,0,0,0,0,0,0,0,0,0,0,0,0,0,0,0,0,0,0,0,0,0,0,0,0,0,0,0,0,0,0,0,0,0,0,0,0,0,0,0,0,0,0,0,0,0,0,0,0,0,0,0,0],"sum_hessian":[4.6826025E2,2.6204724E2,2.06213E2,5.790178E1,2.0414548E2,9.467886E1,1.11534134E2,2.249124E1,3.5410538E1,1.7420372E2,2.9941751E1,6.857268E1,2.6106186E1,1.0947938E2,2.0547507E0,6.6548195E0,1.583642E1,2.2373276E1,1.3037264E1,1.6147891E2,1.2724818E1,1.5819378E1,1.4122373E1,2.3349947E1,4.5222733E1,1.4299309E0,2.4676254E1,1.0560945E2,3.869927E0,1.4830705E1,1.0057147E0,2.0857754E1,1.5155214E0,1.5507333E2,6.405575E0,1.4139127E1,1.6802511E0,1.1086879E1,3.0354934E0,1.534905E1,8.000898E0,2.7378258E1,1.7844475E1,2.3162868E1,1.5133858E0,6.4344816E0,9.917497E1,2.7762446E0,1.2054461E1,1.9136038E1,1.7217157E0,1.4804373E2,7.0295944E0,1.9048842E0,1.2234242E1,1.0019847E1,1.0670322E0,1.3473411E1,1.8756386E0,1.7198261E1,1.01799965E1,1.14605875E1,6.3838882E0,9.723334E1,1.9416348E0],"tree_param":{"num_deleted":"0","num_feature":"21","num_nodes":"65","size_leaf_vector":"1"}},{"base_weights":[2.9180371E-3,-4.7116727E-1,2.3952433E-1,-0E0,-6.919445E-1,2.3257073E-2,5.2434736E-1,-2.4720368E-1,1.6926505E-1,-0E0,-7.106739E-1,-1.0514341E-1,4.5769638E-1,6.924803E-2,7.253591E-1,-0E0,-4.2629156E-1,2.901643E-1,-0E0,-0E0,-7.2576845E-1,-3.235605E-1,6.6568084E-2,5.4768157E-1,-0E0,5.034769E-1,-0E0,1.1112004E-1,-0E0,-5.3736085E-1,-0E0,-0E0,3.742442E-1,-7.3625237E-1,-0E0,-0E0,-4.7404942E-1,2.364517E-1,-0E0,5.950423E-1,-0E0,-0E0,5.2207375E-1,-0E0,-2.6460075E-1,-0E0,-8.376773E-2,6.743731E-2,-0E0,-1.1087321E-1,-0E0,-0E0,1.741945E-2,-8.307803E-2,-0E0,4.579269E-2,-0E0,-1.391879E-2,-0E0,9.5656075E-2,-0E0,8.173768E-2,-0E0,-0E0,8.240668E-3,-5.22774E-2,-0E0],"categories":[],"categories_nodes":[],"categories_segments":[],"categories_sizes":[],"default_left":[0,0,0,0,0,0,0,0,0,0,0,0,0,0,0,0,0,0,0,0,0,0,0,0,0,0,0,0,0,0,0,0,0,0,0,1,1,0,1,0,0,0,0,0,0,0,0,0,0,0,0,0,0,0,0,0,0,0,0,0,0,0,0,0,0,0,0],"id":22,"left_children":[1,3,5,7,9,11,13,15,17,-1,19,21,23,25,27,-1,29,31,-1,-1,33,35,37,39,-1,41,43,-1,-1,45,-1,-1,47,49,-1,51,53,55,57,59,-1,-1,61,63,65,-1,-1,-1,-1,-1,-1,-1,-1,-1,-1,-1,-1,-1,-1,-1,-1,-1,-1,-1,-1,-1,-1],"loss_changes":[4.9379406E1,1.0852104E1,1.5588156E1,2.96907E0,9.938812E-1,1.3289735E1,5.7386665E0,2.6518183E0,8.09281E-1,0E0,8.0020905E-1,7.0401907E0,2.6770267E0,4.4062004E0,1.2154999E0,0E0,2.2632484E0,7.932172E-1,0E0,0E0,6.814842E-1,4.840043E0,1.7600659E0,1.4888563E0,0E0,4.5077324E-2,8.6748E-1,0E0,0E0,8.214712E-2,0E0,0E0,7.723479E-1,1.2728882E-1,0E0,2.30035E-1,3.2673092E0,1.1483259E0,2.2348079E-1,1.5396061E0,0E0,0E0,2.9970646E-2,3.838223E-2,5.234284E-1,0E0,0E0,0E0,0E0,0E0,0E0,0E0,0E0,0E0,0E0,0E0,0E0,0E0,0E0,0E0,0E0,0E0,0E0,0E0,0E0,0E0,0E0],"parents":[2147483647,0,0,1,1,2,2,3,3,4,4,5,5,6,6,7,7,8,8,10,10,11,11,12,12,13,13,14,14,16,16,17,17,20,20,21,21,22,22,23,23,25,25,26,26,29,29,32,32,33,33,35,35,36,36,37,37,38,38,39,39,42,42,43,43,44,44],"right_children":[2,4,6,8,10,12,14,16,18,-1,20,22,24,26,28,-1,30,32,-1,-1,34,36,38,40,-1,42,44,-1,-1,46,-1,-1,48,50,-1,52,54,56,58,60,-1,-1,62,64,66,-1,-1,-1,-1,-1,-1,-1,-1,-1,-1,-1,-1,-1,-1,-1,-1,-1,-1,-1,-1,-1,-1],"split_conditions":[5.8E0,7.365E-1,2E1,4E0,2.49E2,1.2E2,6.53E0,1E0,5E0,-0E0,3.1E0,5E0,7.46E3,1E0,6.001428E0,-0E0,2.6E1,7.3E1,-0E0,-0E0,5.2E1,1E0,1.1613E0,5.8333335E0,-0E0,3.11E2,1.531489E6,1.1112004E-1,-0E0,1.083E3,-0E0,-0E0,1E0,1.5E1,-0E0,1.821E3,7.403E0,2.8254E5,7.033E0,1.0135553E0,-0E0,-0E0,4.6E0,2.0370371E0,1.23E2,-0E0,-8.376773E-2,6.743731E-2,-0E0,-1.1087321E-1,-0E0,-0E0,1.741945E-2,-8.307803E-2,-0E0,4.579269E-2,-0E0,-1.391879E-2,-0E0,9.5656075E-2,-0E0,8.173768E-2,-0E0,-0E0,8.240668E-3,-5.22774E-2,-0E0],"split_indices":[4,3,16,17,15,0,4,17,19,0,4,13,15,17,7,0,18,0,0,0,19,17,3,11,0,15,6,0,0,1,0,0,20,11,0,1,4,6,4,7,0,0,11,9,0,0,0,0,0,0,0,0,0,0,0,0,0,0,0,0,0,0,0,0,0,0,0],"split_type":[0,0,0,0,0,0,0,0,0,0,0,0,0,0,0,0,0,0,0,0,0,0,0,0,0,0,0,0,0,0,0,0,0,0,0,0,0,0,0,0,0,0,0,0,0,0,0,0,0,0,0,0,0,0,0,0,0,0,0,0,0,0,0,0,0,0,0],"sum_hessian":[4.4665332E2,1.3835416E2,3.0829916E2,5.3421352E1,8.49328E1,1.9043024E2,1.1786893E2,3.4606426E1,1.8814926E1,2.632539E0,8.230026E1,1.3743999E2,5.299025E1,4.751064E1,7.035829E1,1.0707462E1,2.3898966E1,1.3697649E1,5.117278E0,2.0131347E0,8.0287125E1,7.586442E1,6.1575577E1,4.4873478E1,8.116772E0,1.4835588E1,3.267505E1,6.893976E1,1.418529E0,2.157663E1,2.3223352E0,1.200663E0,1.2496985E1,7.917478E1,1.1123451E0,2.0859488E1,5.500493E1,3.3127594E1,2.8447987E1,4.1682724E1,3.1907537E0,1.1184487E0,1.3717139E1,2.3796707E1,8.878344E0,1.7843072E0,1.9792322E1,1.1282724E1,1.2142614E0,7.809956E1,1.0752186E0,7.450984E0,1.3408504E1,4.9578438E1,5.426489E0,3.0514017E1,2.613576E0,2.223484E1,6.213146E0,3.927745E1,2.4052763E0,1.2276102E1,1.4410377E0,1.46934805E1,9.103227E0,7.8475447E0,1.0307989E0],"tree_param":{"num_deleted":"0","num_feature":"21","num_nodes":"67","size_leaf_vector":"1"}},{"base_weights":[3.6676922E-3,-4.3317008E-1,2.1804693E-1,-0E0,-6.5440565E-1,4.559089E-2,5.6822157E-1,-2.1211995E-1,1.3311735E-1,-0E0,-6.7366993E-1,1.939244E-1,-2.7980417E-1,-0E0,6.8389344E-1,-0E0,-3.8547498E-1,-0E0,3.1279108E-1,-0E0,-6.8927443E-1,3.0766067E-1,-1.0277274E-1,-4.052722E-1,-0E0,-0E0,7.6475844E-2,7.176646E-1,-0E0,-4.9844185E-1,-0E0,5.440928E-2,-0E0,-7.00266E-1,-0E0,3.8848424E-1,-0E0,-3.0075476E-1,-0E0,-4.7088423E-1,-0E0,3.1852674E-2,-0E0,-0E0,7.2466063E-1,-0E0,-7.768214E-2,-1.055081E-1,-0E0,6.115638E-2,-0E0,-9.255152E-3,-0E0,-5.9081312E-2,-0E0,-8.503988E-2,-0E0,1.0961853E-1,-0E0],"categories":[],"categories_nodes":[],"categories_segments":[],"categories_sizes":[],"default_left":[0,0,0,0,0,0,0,0,0,0,0,0,0,0,0,0,0,0,0,0,0,0,0,0,0,0,0,0,0,0,0,0,0,0,0,0,0,0,0,0,0,0,0,0,0,0,0,0,0,0,0,0,0,0,0,0,0,0,0],"id":23,"left_children":[1,3,5,7,9,11,13,15,17,-1,19,21,23,25,27,-1,29,-1,31,-1,33,35,37,39,-1,-1,41,43,-1,45,-1,-1,-1,47,-1,49,51,53,-1,55,-1,-1,-1,-1,57,-1,-1,-1,-1,-1,-1,-1,-1,-1,-1,-1,-1,-1,-1],"loss_changes":[3.9385567E1,9.633928E0,1.4148513E1,2.0589497E0,8.758774E-1,1.0189189E1,3.8347836E0,2.227286E0,6.8563205E-1,0E0,7.088394E-1,7.055031E0,3.683279E0,9.965544E-2,9.0916824E-1,0E0,2.0342216E0,0E0,2.4596703E-1,0E0,6.196823E-1,4.892171E0,2.029729E0,2.0230389E0,0E0,0E0,5.398639E-1,1.05358124E-1,0E0,4.001999E-2,0E0,0E0,0E0,9.391785E-2,0E0,1.6724701E0,4.0929426E-2,1.4805083E0,0E0,2.4926882E0,0E0,0E0,0E0,0E0,8.044052E-2,0E0,0E0,0E0,0E0,0E0,0E0,0E0,0E0,0E0,0E0,0E0,0E0,0E0,0E0],"parents":[2147483647,0,0,1,1,2,2,3,3,4,4,5,5,6,6,7,7,8,8,10,10,11,11,12,12,13,13,14,14,16,16,18,18,20,20,21,21,22,22,23,23,26,26,27,27,29,29,33,33,35,35,36,36,37,37,39,39,44,44],"right_children":[2,4,6,8,10,12,14,16,18,-1,20,22,24,26,28,-1,30,-1,32,-1,34,36,38,40,-1,-1,42,44,-1,46,-1,-1,-1,48,-1,50,52,54,-1,56,-1,-1,-1,-1,58,-1,-1,-1,-1,-1,-1,-1,-1,-1,-1,-1,-1,-1,-1],"split_conditions":[5.8E0,7.365E-1,7.033E0,4E0,2.49E2,1.9093E0,1.821E3,1E0,1.04E2,-0E0,3.1E0,6.932E3,1.27E2,1E0,9.98004E-1,-0E0,2.6E1,-0E0,3E0,-0E0,5.2E1,1.6E6,1.1E1,4.8E1,-0E0,-0E0,7.103973E6,6.9E1,-0E0,1.083E3,-0E0,5.440928E-2,-0E0,1.5E1,-0E0,7.864905E6,4.336E3,6E1,-0E0,3E0,-0E0,3.1852674E-2,-0E0,-0E0,3.3E1,-0E0,-7.768214E-2,-1.055081E-1,-0E0,6.115638E-2,-0E0,-9.255152E-3,-0E0,-5.9081312E-2,-0E0,-8.503988E-2,-0E0,1.0961853E-1,-0E0],"split_indices":[4,3,4,17,15,3,1,17,0,0,4,15,0,19,7,0,18,0,14,0,19,5,18,16,0,0,6,0,0,1,0,0,0,11,0,6,1,20,0,14,0,0,0,0,18,0,0,0,0,0,0,0,0,0,0,0,0,0,0],"split_type":[0,0,0,0,0,0,0,0,0,0,0,0,0,0,0,0,0,0,0,0,0,0,0,0,0,0,0,0,0,0,0,0,0,0,0,0,0,0,0,0,0,0,0,0,0,0,0,0,0,0,0,0,0,0,0,0,0,0,0],"sum_hessian":[4.2851273E2,1.2985803E2,2.986547E2,5.2437645E1,7.742039E1,2.152596E2,8.339509E1,3.3345913E1,1.9091732E1,2.632539E0,7.478785E1,1.626168E2,5.2642788E1,1.8713158E1,6.468193E1,1.0707462E1,2.263845E1,1.1501846E1,7.589885E0,2.0131347E0,7.277471E1,1.3337013E2,2.9246675E1,4.5680645E1,6.9621415E0,5.185659E0,1.3527498E1,6.0180172E1,4.501757E0,2.0316116E1,2.3223352E0,6.531728E0,1.0581572E0,7.166237E1,1.1123451E0,1.14754425E2,1.8615713E1,2.2752869E1,6.493806E0,4.205077E1,3.6298776E0,1.0556603E1,2.970895E0,1.0232241E0,5.9156948E1,1.7843072E0,1.8531809E1,7.058715E1,1.0752186E0,1.12983116E2,1.7713091E0,7.152962E0,1.14627495E1,2.1145594E1,1.6072761E0,3.536131E1,6.6894608E0,5.776507E1,1.3918791E0],"tree_param":{"num_deleted":"0","num_feature":"21","num_nodes":"59","size_leaf_vector":"1"}},{"base_weights":[2.0074632E-3,-2.2508243E-1,3.2776043E-1,3.7151676E-2,-4.1293645E-1,-0E0,4.9470836E-1,-2.04399E-3,3.035999E-1,-0E0,-5.404597E-1,-1.6174172E-1,3.1222472E-1,-0E0,5.431496E-1,1.9063939E-1,-3.1150132E-1,-0E0,3.7813842E-1,-1.8388156E-2,1.2543882E-1,-5.7982147E-1,-0E0,-0E0,-5.26448E-1,3.7154284E-1,-0E0,5.8872575E-1,-0E0,3.0777562E-1,-0E0,-4.6282384E-1,-0E0,5.06038E-1,-0E0,-1.3660486E-1,-0E0,-0E0,2.9008496E-1,-6.5729314E-1,-0E0,-6.585706E-1,-0E0,4.2604896E-1,-0E0,6.00598E-1,-0E0,5.034861E-2,-0E0,-9.060161E-2,-0E0,8.991586E-2,-0E0,-3.176032E-2,-0E0,5.2745733E-2,-0E0,-1.0676067E-1,-0E0,-1.4041941E-2,-0E0,-1.14573486E-1,-0E0,6.642147E-2,-0E0,9.3462385E-2,-0E0],"categories":[],"categories_nodes":[],"categories_segments":[],"categories_sizes":[],"default_left":[0,0,1,0,0,0,0,0,0,0,0,1,0,0,1,0,0,0,0,0,0,0,0,0,0,0,0,0,0,0,0,0,0,1,0,0,0,0,0,0,0,0,0,0,0,1,0,0,0,0,0,0,0,0,0,0,0,0,0,0,0,0,0,0,0,0,0],"id":24,"left_children":[1,3,5,7,9,11,13,15,17,19,21,23,25,-1,27,29,31,-1,33,35,37,39,-1,-1,41,43,-1,45,-1,47,-1,49,-1,51,-1,53,-1,-1,55,57,59,61,-1,63,-1,65,-1,-1,-1,-1,-1,-1,-1,-1,-1,-1,-1,-1,-1,-1,-1,-1,-1,-1,-1,-1,-1],"loss_changes":[3.168575E1,1.409668E1,1.0413729E1,2.8789318E0,8.952997E0,3.3151302E0,3.79006E0,4.449004E0,1.1964426E0,2.8067368E-1,3.3364754E0,3.3300939E0,7.3861575E-1,0E0,2.9929733E0,6.9134575E-1,3.2410414E0,0E0,1.4728212E0,3.7596393E-1,9.461932E-1,2.281639E0,0E0,0E0,1.8181653E0,6.687045E-1,0E0,1.0386086E0,0E0,1.6432595E-1,0E0,2.8543692E0,0E0,1.3984418E0,0E0,3.367389E-1,0E0,0E0,4.505086E-1,2.190857E0,1.6425985E-1,1.503828E0,0E0,1.1159468E-1,0E0,7.872124E-1,0E0,0E0,0E0,0E0,0E0,0E0,0E0,0E0,0E0,0E0,0E0,0E0,0E0,0E0,0E0,0E0,0E0,0E0,0E0,0E0,0E0],"parents":[2147483647,0,0,1,1,2,2,3,3,4,4,5,5,6,6,7,7,8,8,9,9,10,10,11,11,12,12,14,14,15,15,16,16,18,18,19,19,20,20,21,21,24,24,25,25,27,27,29,29,31,31,33,33,35,35,38,38,39,39,40,40,41,41,43,43,45,45],"right_children":[2,4,6,8,10,12,14,16,18,20,22,24,26,-1,28,30,32,-1,34,36,38,40,-1,-1,42,44,-1,46,-1,48,-1,50,-1,52,-1,54,-1,-1,56,58,60,62,-1,64,-1,66,-1,-1,-1,-1,-1,-1,-1,-1,-1,-1,-1,-1,-1,-1,-1,-1,-1,-1,-1,-1,-1],"split_conditions":[6.467E0,7.365E-1,1.865E3,4E0,1E0,2.2E1,1E0,1E0,7.6E1,2E1,6.4E1,1.288E0,1.57E2,-0E0,3.4E7,4.934E-1,2.1E1,-0E0,7E0,2.1E1,5.5E0,1.19E2,-0E0,-0E0,3.1E0,2E0,-0E0,3.2157524E1,-0E0,8.607E3,-0E0,1.29E2,-0E0,3.363E3,-0E0,1.15E2,-0E0,-0E0,2.1268E0,6.3E0,2.2E1,1.24E2,-0E0,2.80329E-1,-0E0,5.3112E0,-0E0,5.034861E-2,-0E0,-9.060161E-2,-0E0,8.991586E-2,-0E0,-3.176032E-2,-0E0,5.2745733E-2,-0E0,-1.0676067E-1,-0E0,-1.4041941E-2,-0E0,-1.14573486E-1,-0E0,6.642147E-2,-0E0,9.3462385E-2,-0E0],"split_indices":[4,3,1,17,17,16,16,17,0,16,16,3,0,0,5,3,18,0,19,18,4,0,0,0,11,10,0,7,0,1,0,0,0,1,0,0,0,0,3,4,16,0,0,7,0,3,0,0,0,0,0,0,0,0,0,0,0,0,0,0,0,0,0,0,0,0,0],"split_type":[0,0,0,0,0,0,0,0,0,0,0,0,0,0,0,0,0,0,0,0,0,0,0,0,0,0,0,0,0,0,0,0,0,0,0,0,0,0,0,0,0,0,0,0,0,0,0,0,0,0,0,0,0,0,0,0,0,0,0,0,0,0,0,0,0,0,0],"sum_hessian":[4.1225137E2,2.317395E2,1.8051187E2,8.3388824E1,1.4835068E2,6.0695786E1,1.19816086E2,5.4367943E1,2.9020884E1,3.2559326E1,1.1579135E2,4.256601E1,1.8129776E1,8.170073E0,1.1164602E2,2.1332087E1,3.3035854E1,3.1941838E0,2.5826698E1,1.871104E1,1.3848284E1,1.100674E2,5.723949E0,2.971288E1,1.2853128E1,1.7121668E1,1.0081083E0,1.0314157E2,8.504447E0,1.3318402E1,8.013684E0,2.817439E1,4.861463E0,1.8621958E1,7.2047405E0,1.7037996E1,1.6730444E0,2.86976E0,1.0978523E1,9.0152435E1,1.9914963E1,1.1137583E1,1.7155465E0,1.5863889E1,1.2577778E0,1.0184602E2,1.2955482E0,1.1971769E1,1.3466327E0,2.270424E1,5.4701495E0,1.5995862E1,2.6260965E0,1.2424102E1,4.6138945E0,9.884617E0,1.0939068E0,8.001999E1,1.013245E1,1.5081665E1,4.8332973E0,9.847974E0,1.2896088E0,1.4845508E1,1.0183815E0,9.56053E1,6.240721E0],"tree_param":{"num_deleted":"0","num_feature":"21","num_nodes":"67","size_leaf_vector":"1"}},{"base_weights":[1.6084886E-3,-3.700808E-1,1.8240254E-1,-0E0,-5.861262E-1,-0E0,4.6780974E-1,-1.5593047E-1,7.359717E-2,-6.673708E-1,-0E0,-7.3456176E-2,3.0984637E-1,5.507605E-1,-0E0,-0E0,-3.0391857E-1,-0E0,2.3615135E-1,-6.843855E-1,-0E0,-0E0,-4.6047822E-1,-0E0,5.593733E-1,5.6578934E-1,-0E0,-0E0,5.3630408E-2,-3.9412996E-1,-0E0,4.2628545E-2,-0E0,-6.9379073E-1,-0E0,-1.6966173E-1,5.423278E-1,-5.988786E-1,-0E0,-1.4457893E-1,1.617396E-1,9.310272E-2,-0E0,5.7793546E-1,-0E0,-1.787768E-2,-0E0,-0E0,1.8533314E-2,-6.5180354E-2,-0E0,-0E0,-1.0506316E-1,-0E0,-1.1674278E-1,1.17378056E-1,-0E0,-1.0486793E-1,-0E0,-0E0,-4.4788502E-2,-0E0,3.9191164E-2,8.846995E-2,-0E0,-5.864866E-3,-0E0],"categories":[],"categories_nodes":[],"categories_segments":[],"categories_sizes":[],"default_left":[0,0,0,0,0,0,1,0,0,0,0,0,0,0,0,0,0,0,0,0,0,0,1,1,0,0,0,0,0,0,0,0,0,0,0,0,0,0,0,0,0,0,0,0,0,0,0,0,0,0,0,0,0,0,0,0,0,0,0,0,0,0,0,0,0,0,0],"id":25,"left_children":[1,3,5,7,9,11,13,15,17,19,-1,21,23,25,27,-1,29,-1,31,33,-1,35,37,39,41,43,-1,45,47,49,-1,-1,-1,51,-1,53,55,57,-1,59,61,-1,-1,63,-1,65,-1,-1,-1,-1,-1,-1,-1,-1,-1,-1,-1,-1,-1,-1,-1,-1,-1,-1,-1,-1,-1],"loss_changes":[2.5939402E1,7.44471E0,1.1726263E1,9.705339E-1,1.1271133E0,5.9560175E0,2.8665504E0,1.4711206E0,5.019578E-1,3.0536842E-1,0E0,6.0771055E0,4.037131E0,8.8706017E-1,3.80158E-2,0E0,1.2493083E0,0E0,2.0214766E-1,3.8316727E-2,0E0,1.2252518E1,3.328792E0,7.453493E-1,1.7896042E0,7.2382927E-1,0E0,3.225693E-3,1.4753939E-1,5.740788E-1,0E0,0E0,0E0,1.6536713E-2,0E0,9.217303E0,5.046562E0,2.6818094E0,0E0,8.2236683E-1,4.504729E-1,0E0,0E0,7.2937965E-1,0E0,1.03876535E-2,0E0,0E0,0E0,0E0,0E0,0E0,0E0,0E0,0E0,0E0,0E0,0E0,0E0,0E0,0E0,0E0,0E0,0E0,0E0,0E0,0E0],"parents":[2147483647,0,0,1,1,2,2,3,3,4,4,5,5,6,6,7,7,8,8,9,9,11,11,12,12,13,13,14,14,16,16,18,18,19,19,21,21,22,22,23,23,24,24,25,25,27,27,28,28,29,29,33,33,35,35,36,36,37,37,39,39,40,40,43,43,45,45],"right_children":[2,4,6,8,10,12,14,16,18,20,-1,22,24,26,28,-1,30,-1,32,34,-1,36,38,40,42,44,-1,46,48,50,-1,-1,-1,52,-1,54,56,58,-1,60,62,-1,-1,64,-1,66,-1,-1,-1,-1,-1,-1,-1,-1,-1,-1,-1,-1,-1,-1,-1,-1,-1,-1,-1,-1,-1],"split_conditions":[5.8E0,7.365E-1,2.2E1,4E0,1.14E2,1.2E2,6.55E6,1.281E3,1.04E2,8E1,-0E0,7E0,6E0,1.37E2,6.641E0,-0E0,2E0,-0E0,3E0,1.12E2,-0E0,4E0,7.403E0,5.929E3,8.774982E-1,4E1,-0E0,3E0,1.375E0,2.8E1,-0E0,4.2628545E-2,-0E0,2.956E0,-0E0,2E0,5E0,1E1,-0E0,1E0,6.618E0,9.310272E-2,-0E0,5.76881E0,-0E0,4.6E1,-0E0,-0E0,1.8533314E-2,-6.5180354E-2,-0E0,-0E0,-1.0506316E-1,-0E0,-1.1674278E-1,1.17378056E-1,-0E0,-1.0486793E-1,-0E0,-0E0,-4.4788502E-2,-0E0,3.9191164E-2,